digraph Tree {
node [shape=box] ;
0 [label="X[2] <= 25.5\ngini = 0.495\nsamples = 17216\nvalue = [9470, 7746]"] ;
1 [label="X[6] <= 1.5\ngini = 0.398\nsamples = 2667\nvalue = [732, 1935]"] ;
0 -> 1 [labeldistance=2.5, labelangle=45, headlabel="True"] ;
2 [label="X[2] <= 8.5\ngini = 0.319\nsamples = 1555\nvalue = [310, 1245]"] ;
1 -> 2 ;
3 [label="X[3] <= 1.5\ngini = 0.159\nsamples = 332\nvalue = [29, 303]"] ;
2 -> 3 ;
4 [label="X[12] <= 24.5\ngini = 0.07\nsamples = 219\nvalue = [8, 211]"] ;
3 -> 4 ;
5 [label="X[10] <= 638.5\ngini = 0.041\nsamples = 189\nvalue = [4, 185]"] ;
4 -> 5 ;
6 [label="X[11] <= 18.5\ngini = 0.033\nsamples = 181\nvalue = [3, 178]"] ;
5 -> 6 ;
7 [label="X[11] <= 5.5\ngini = 0.023\nsamples = 170\nvalue = [2, 168]"] ;
6 -> 7 ;
8 [label="gini = 0.0\nsamples = 92\nvalue = [0, 92]"] ;
7 -> 8 ;
9 [label="X[2] <= 2.5\ngini = 0.05\nsamples = 78\nvalue = [2, 76]"] ;
7 -> 9 ;
10 [label="X[12] <= 6.5\ngini = 0.142\nsamples = 13\nvalue = [1, 12]"] ;
9 -> 10 ;
11 [label="X[11] <= 7.5\ngini = 0.375\nsamples = 4\nvalue = [1, 3]"] ;
10 -> 11 ;
12 [label="gini = 0.0\nsamples = 3\nvalue = [0, 3]"] ;
11 -> 12 ;
13 [label="gini = 0.0\nsamples = 1\nvalue = [1, 0]"] ;
11 -> 13 ;
14 [label="gini = 0.0\nsamples = 9\nvalue = [0, 9]"] ;
10 -> 14 ;
15 [label="X[11] <= 6.5\ngini = 0.03\nsamples = 65\nvalue = [1, 64]"] ;
9 -> 15 ;
16 [label="X[10] <= 395.0\ngini = 0.133\nsamples = 14\nvalue = [1, 13]"] ;
15 -> 16 ;
17 [label="gini = 0.0\nsamples = 8\nvalue = [0, 8]"] ;
16 -> 17 ;
18 [label="X[10] <= 474.0\ngini = 0.278\nsamples = 6\nvalue = [1, 5]"] ;
16 -> 18 ;
19 [label="gini = 0.0\nsamples = 1\nvalue = [1, 0]"] ;
18 -> 19 ;
20 [label="gini = 0.0\nsamples = 5\nvalue = [0, 5]"] ;
18 -> 20 ;
21 [label="gini = 0.0\nsamples = 51\nvalue = [0, 51]"] ;
15 -> 21 ;
22 [label="X[12] <= 0.5\ngini = 0.165\nsamples = 11\nvalue = [1, 10]"] ;
6 -> 22 ;
23 [label="gini = 0.0\nsamples = 1\nvalue = [1, 0]"] ;
22 -> 23 ;
24 [label="gini = 0.0\nsamples = 10\nvalue = [0, 10]"] ;
22 -> 24 ;
25 [label="X[10] <= 647.0\ngini = 0.219\nsamples = 8\nvalue = [1, 7]"] ;
5 -> 25 ;
26 [label="gini = 0.0\nsamples = 1\nvalue = [1, 0]"] ;
25 -> 26 ;
27 [label="gini = 0.0\nsamples = 7\nvalue = [0, 7]"] ;
25 -> 27 ;
28 [label="X[11] <= 0.5\ngini = 0.231\nsamples = 30\nvalue = [4, 26]"] ;
4 -> 28 ;
29 [label="gini = 0.0\nsamples = 2\nvalue = [2, 0]"] ;
28 -> 29 ;
30 [label="X[1] <= 0.45\ngini = 0.133\nsamples = 28\nvalue = [2, 26]"] ;
28 -> 30 ;
31 [label="gini = 0.0\nsamples = 23\nvalue = [0, 23]"] ;
30 -> 31 ;
32 [label="X[2] <= 2.5\ngini = 0.48\nsamples = 5\nvalue = [2, 3]"] ;
30 -> 32 ;
33 [label="X[10] <= 551.5\ngini = 0.444\nsamples = 3\nvalue = [2, 1]"] ;
32 -> 33 ;
34 [label="gini = 0.0\nsamples = 2\nvalue = [2, 0]"] ;
33 -> 34 ;
35 [label="gini = 0.0\nsamples = 1\nvalue = [0, 1]"] ;
33 -> 35 ;
36 [label="gini = 0.0\nsamples = 2\nvalue = [0, 2]"] ;
32 -> 36 ;
37 [label="X[2] <= 4.5\ngini = 0.303\nsamples = 113\nvalue = [21, 92]"] ;
3 -> 37 ;
38 [label="X[1] <= 0.95\ngini = 0.426\nsamples = 39\nvalue = [12, 27]"] ;
37 -> 38 ;
39 [label="X[11] <= 1.5\ngini = 0.394\nsamples = 37\nvalue = [10, 27]"] ;
38 -> 39 ;
40 [label="X[10] <= 485.5\ngini = 0.496\nsamples = 11\nvalue = [6, 5]"] ;
39 -> 40 ;
41 [label="X[4] <= 2.5\ngini = 0.408\nsamples = 7\nvalue = [2, 5]"] ;
40 -> 41 ;
42 [label="X[10] <= 372.0\ngini = 0.444\nsamples = 3\nvalue = [2, 1]"] ;
41 -> 42 ;
43 [label="gini = 0.0\nsamples = 2\nvalue = [2, 0]"] ;
42 -> 43 ;
44 [label="gini = 0.0\nsamples = 1\nvalue = [0, 1]"] ;
42 -> 44 ;
45 [label="gini = 0.0\nsamples = 4\nvalue = [0, 4]"] ;
41 -> 45 ;
46 [label="gini = 0.0\nsamples = 4\nvalue = [4, 0]"] ;
40 -> 46 ;
47 [label="X[10] <= 459.0\ngini = 0.26\nsamples = 26\nvalue = [4, 22]"] ;
39 -> 47 ;
48 [label="X[10] <= 419.5\ngini = 0.426\nsamples = 13\nvalue = [4, 9]"] ;
47 -> 48 ;
49 [label="X[4] <= 3.5\ngini = 0.298\nsamples = 11\nvalue = [2, 9]"] ;
48 -> 49 ;
50 [label="X[12] <= 24.5\ngini = 0.18\nsamples = 10\nvalue = [1, 9]"] ;
49 -> 50 ;
51 [label="gini = 0.0\nsamples = 7\nvalue = [0, 7]"] ;
50 -> 51 ;
52 [label="X[12] <= 27.5\ngini = 0.444\nsamples = 3\nvalue = [1, 2]"] ;
50 -> 52 ;
53 [label="gini = 0.0\nsamples = 1\nvalue = [1, 0]"] ;
52 -> 53 ;
54 [label="gini = 0.0\nsamples = 2\nvalue = [0, 2]"] ;
52 -> 54 ;
55 [label="gini = 0.0\nsamples = 1\nvalue = [1, 0]"] ;
49 -> 55 ;
56 [label="gini = 0.0\nsamples = 2\nvalue = [2, 0]"] ;
48 -> 56 ;
57 [label="gini = 0.0\nsamples = 13\nvalue = [0, 13]"] ;
47 -> 57 ;
58 [label="gini = 0.0\nsamples = 2\nvalue = [2, 0]"] ;
38 -> 58 ;
59 [label="X[4] <= 5.5\ngini = 0.214\nsamples = 74\nvalue = [9, 65]"] ;
37 -> 59 ;
60 [label="X[10] <= 301.5\ngini = 0.195\nsamples = 73\nvalue = [8, 65]"] ;
59 -> 60 ;
61 [label="X[11] <= 8.5\ngini = 0.295\nsamples = 39\nvalue = [7, 32]"] ;
60 -> 61 ;
62 [label="X[10] <= 287.5\ngini = 0.18\nsamples = 30\nvalue = [3, 27]"] ;
61 -> 62 ;
63 [label="X[12] <= 0.5\ngini = 0.128\nsamples = 29\nvalue = [2, 27]"] ;
62 -> 63 ;
64 [label="X[10] <= 187.5\ngini = 0.5\nsamples = 2\nvalue = [1, 1]"] ;
63 -> 64 ;
65 [label="gini = 0.0\nsamples = 1\nvalue = [1, 0]"] ;
64 -> 65 ;
66 [label="gini = 0.0\nsamples = 1\nvalue = [0, 1]"] ;
64 -> 66 ;
67 [label="X[4] <= 1.5\ngini = 0.071\nsamples = 27\nvalue = [1, 26]"] ;
63 -> 67 ;
68 [label="X[11] <= 5.0\ngini = 0.245\nsamples = 7\nvalue = [1, 6]"] ;
67 -> 68 ;
69 [label="gini = 0.0\nsamples = 4\nvalue = [0, 4]"] ;
68 -> 69 ;
70 [label="X[2] <= 6.5\ngini = 0.444\nsamples = 3\nvalue = [1, 2]"] ;
68 -> 70 ;
71 [label="gini = 0.0\nsamples = 1\nvalue = [0, 1]"] ;
70 -> 71 ;
72 [label="X[12] <= 9.0\ngini = 0.5\nsamples = 2\nvalue = [1, 1]"] ;
70 -> 72 ;
73 [label="gini = 0.0\nsamples = 1\nvalue = [1, 0]"] ;
72 -> 73 ;
74 [label="gini = 0.0\nsamples = 1\nvalue = [0, 1]"] ;
72 -> 74 ;
75 [label="gini = 0.0\nsamples = 20\nvalue = [0, 20]"] ;
67 -> 75 ;
76 [label="gini = 0.0\nsamples = 1\nvalue = [1, 0]"] ;
62 -> 76 ;
77 [label="X[10] <= 197.0\ngini = 0.494\nsamples = 9\nvalue = [4, 5]"] ;
61 -> 77 ;
78 [label="X[5] <= 0.5\ngini = 0.278\nsamples = 6\nvalue = [1, 5]"] ;
77 -> 78 ;
79 [label="gini = 0.0\nsamples = 5\nvalue = [0, 5]"] ;
78 -> 79 ;
80 [label="gini = 0.0\nsamples = 1\nvalue = [1, 0]"] ;
78 -> 80 ;
81 [label="gini = 0.0\nsamples = 3\nvalue = [3, 0]"] ;
77 -> 81 ;
82 [label="X[4] <= 3.5\ngini = 0.057\nsamples = 34\nvalue = [1, 33]"] ;
60 -> 82 ;
83 [label="gini = 0.0\nsamples = 27\nvalue = [0, 27]"] ;
82 -> 83 ;
84 [label="X[12] <= 11.0\ngini = 0.245\nsamples = 7\nvalue = [1, 6]"] ;
82 -> 84 ;
85 [label="gini = 0.0\nsamples = 4\nvalue = [0, 4]"] ;
84 -> 85 ;
86 [label="X[10] <= 499.5\ngini = 0.444\nsamples = 3\nvalue = [1, 2]"] ;
84 -> 86 ;
87 [label="gini = 0.0\nsamples = 1\nvalue = [1, 0]"] ;
86 -> 87 ;
88 [label="gini = 0.0\nsamples = 2\nvalue = [0, 2]"] ;
86 -> 88 ;
89 [label="gini = 0.0\nsamples = 1\nvalue = [1, 0]"] ;
59 -> 89 ;
90 [label="X[11] <= 1.5\ngini = 0.354\nsamples = 1223\nvalue = [281, 942]"] ;
2 -> 90 ;
91 [label="X[4] <= 4.5\ngini = 0.442\nsamples = 203\nvalue = [67, 136]"] ;
90 -> 91 ;
92 [label="X[10] <= 121.0\ngini = 0.435\nsamples = 200\nvalue = [64, 136]"] ;
91 -> 92 ;
93 [label="X[12] <= 5.5\ngini = 0.496\nsamples = 46\nvalue = [21, 25]"] ;
92 -> 93 ;
94 [label="X[10] <= 42.5\ngini = 0.415\nsamples = 17\nvalue = [5, 12]"] ;
93 -> 94 ;
95 [label="X[4] <= 1.5\ngini = 0.444\nsamples = 6\nvalue = [4, 2]"] ;
94 -> 95 ;
96 [label="X[12] <= 2.5\ngini = 0.5\nsamples = 4\nvalue = [2, 2]"] ;
95 -> 96 ;
97 [label="X[11] <= 0.5\ngini = 0.444\nsamples = 3\nvalue = [1, 2]"] ;
96 -> 97 ;
98 [label="gini = 0.0\nsamples = 2\nvalue = [0, 2]"] ;
97 -> 98 ;
99 [label="gini = 0.0\nsamples = 1\nvalue = [1, 0]"] ;
97 -> 99 ;
100 [label="gini = 0.0\nsamples = 1\nvalue = [1, 0]"] ;
96 -> 100 ;
101 [label="gini = 0.0\nsamples = 2\nvalue = [2, 0]"] ;
95 -> 101 ;
102 [label="X[4] <= 3.5\ngini = 0.165\nsamples = 11\nvalue = [1, 10]"] ;
94 -> 102 ;
103 [label="gini = 0.0\nsamples = 9\nvalue = [0, 9]"] ;
102 -> 103 ;
104 [label="X[12] <= 2.0\ngini = 0.5\nsamples = 2\nvalue = [1, 1]"] ;
102 -> 104 ;
105 [label="gini = 0.0\nsamples = 1\nvalue = [0, 1]"] ;
104 -> 105 ;
106 [label="gini = 0.0\nsamples = 1\nvalue = [1, 0]"] ;
104 -> 106 ;
107 [label="X[10] <= 93.0\ngini = 0.495\nsamples = 29\nvalue = [16, 13]"] ;
93 -> 107 ;
108 [label="X[12] <= 12.5\ngini = 0.496\nsamples = 22\nvalue = [10, 12]"] ;
107 -> 108 ;
109 [label="X[10] <= 81.0\ngini = 0.49\nsamples = 14\nvalue = [8, 6]"] ;
108 -> 109 ;
110 [label="X[10] <= 32.0\ngini = 0.444\nsamples = 12\nvalue = [8, 4]"] ;
109 -> 110 ;
111 [label="X[10] <= 2.5\ngini = 0.49\nsamples = 7\nvalue = [3, 4]"] ;
110 -> 111 ;
112 [label="gini = 0.0\nsamples = 1\nvalue = [1, 0]"] ;
111 -> 112 ;
113 [label="X[12] <= 7.5\ngini = 0.444\nsamples = 6\nvalue = [2, 4]"] ;
111 -> 113 ;
114 [label="X[4] <= 3.5\ngini = 0.444\nsamples = 3\nvalue = [2, 1]"] ;
113 -> 114 ;
115 [label="gini = 0.0\nsamples = 2\nvalue = [2, 0]"] ;
114 -> 115 ;
116 [label="gini = 0.0\nsamples = 1\nvalue = [0, 1]"] ;
114 -> 116 ;
117 [label="gini = 0.0\nsamples = 3\nvalue = [0, 3]"] ;
113 -> 117 ;
118 [label="gini = 0.0\nsamples = 5\nvalue = [5, 0]"] ;
110 -> 118 ;
119 [label="gini = 0.0\nsamples = 2\nvalue = [0, 2]"] ;
109 -> 119 ;
120 [label="X[5] <= 0.5\ngini = 0.375\nsamples = 8\nvalue = [2, 6]"] ;
108 -> 120 ;
121 [label="X[4] <= 1.5\ngini = 0.245\nsamples = 7\nvalue = [1, 6]"] ;
120 -> 121 ;
122 [label="X[10] <= 1.5\ngini = 0.5\nsamples = 2\nvalue = [1, 1]"] ;
121 -> 122 ;
123 [label="gini = 0.0\nsamples = 1\nvalue = [1, 0]"] ;
122 -> 123 ;
124 [label="gini = 0.0\nsamples = 1\nvalue = [0, 1]"] ;
122 -> 124 ;
125 [label="gini = 0.0\nsamples = 5\nvalue = [0, 5]"] ;
121 -> 125 ;
126 [label="gini = 0.0\nsamples = 1\nvalue = [1, 0]"] ;
120 -> 126 ;
127 [label="X[12] <= 15.0\ngini = 0.245\nsamples = 7\nvalue = [6, 1]"] ;
107 -> 127 ;
128 [label="gini = 0.0\nsamples = 5\nvalue = [5, 0]"] ;
127 -> 128 ;
129 [label="X[11] <= 0.5\ngini = 0.5\nsamples = 2\nvalue = [1, 1]"] ;
127 -> 129 ;
130 [label="gini = 0.0\nsamples = 1\nvalue = [1, 0]"] ;
129 -> 130 ;
131 [label="gini = 0.0\nsamples = 1\nvalue = [0, 1]"] ;
129 -> 131 ;
132 [label="X[0] <= 0.15\ngini = 0.403\nsamples = 154\nvalue = [43, 111]"] ;
92 -> 132 ;
133 [label="X[12] <= 22.5\ngini = 0.391\nsamples = 150\nvalue = [40, 110]"] ;
132 -> 133 ;
134 [label="X[10] <= 156.5\ngini = 0.375\nsamples = 140\nvalue = [35, 105]"] ;
133 -> 134 ;
135 [label="X[12] <= 2.0\ngini = 0.165\nsamples = 11\nvalue = [1, 10]"] ;
134 -> 135 ;
136 [label="gini = 0.0\nsamples = 1\nvalue = [1, 0]"] ;
135 -> 136 ;
137 [label="gini = 0.0\nsamples = 10\nvalue = [0, 10]"] ;
135 -> 137 ;
138 [label="X[10] <= 163.5\ngini = 0.388\nsamples = 129\nvalue = [34, 95]"] ;
134 -> 138 ;
139 [label="gini = 0.0\nsamples = 2\nvalue = [2, 0]"] ;
138 -> 139 ;
140 [label="X[10] <= 383.0\ngini = 0.377\nsamples = 127\nvalue = [32, 95]"] ;
138 -> 140 ;
141 [label="X[11] <= 0.5\ngini = 0.427\nsamples = 55\nvalue = [17, 38]"] ;
140 -> 141 ;
142 [label="X[10] <= 367.0\ngini = 0.482\nsamples = 32\nvalue = [13, 19]"] ;
141 -> 142 ;
143 [label="X[10] <= 271.0\ngini = 0.452\nsamples = 29\nvalue = [10, 19]"] ;
142 -> 143 ;
144 [label="X[5] <= 0.5\ngini = 0.497\nsamples = 13\nvalue = [7, 6]"] ;
143 -> 144 ;
145 [label="X[12] <= 4.5\ngini = 0.496\nsamples = 11\nvalue = [5, 6]"] ;
144 -> 145 ;
146 [label="gini = 0.0\nsamples = 2\nvalue = [0, 2]"] ;
145 -> 146 ;
147 [label="X[12] <= 10.5\ngini = 0.494\nsamples = 9\nvalue = [5, 4]"] ;
145 -> 147 ;
148 [label="gini = 0.0\nsamples = 3\nvalue = [3, 0]"] ;
147 -> 148 ;
149 [label="X[10] <= 255.5\ngini = 0.444\nsamples = 6\nvalue = [2, 4]"] ;
147 -> 149 ;
150 [label="gini = 0.0\nsamples = 4\nvalue = [0, 4]"] ;
149 -> 150 ;
151 [label="gini = 0.0\nsamples = 2\nvalue = [2, 0]"] ;
149 -> 151 ;
152 [label="gini = 0.0\nsamples = 2\nvalue = [2, 0]"] ;
144 -> 152 ;
153 [label="X[5] <= 0.5\ngini = 0.305\nsamples = 16\nvalue = [3, 13]"] ;
143 -> 153 ;
154 [label="X[4] <= 2.5\ngini = 0.165\nsamples = 11\nvalue = [1, 10]"] ;
153 -> 154 ;
155 [label="X[4] <= 1.5\ngini = 0.32\nsamples = 5\nvalue = [1, 4]"] ;
154 -> 155 ;
156 [label="gini = 0.0\nsamples = 3\nvalue = [0, 3]"] ;
155 -> 156 ;
157 [label="X[2] <= 13.5\ngini = 0.5\nsamples = 2\nvalue = [1, 1]"] ;
155 -> 157 ;
158 [label="gini = 0.0\nsamples = 1\nvalue = [1, 0]"] ;
157 -> 158 ;
159 [label="gini = 0.0\nsamples = 1\nvalue = [0, 1]"] ;
157 -> 159 ;
160 [label="gini = 0.0\nsamples = 6\nvalue = [0, 6]"] ;
154 -> 160 ;
161 [label="X[4] <= 1.5\ngini = 0.48\nsamples = 5\nvalue = [2, 3]"] ;
153 -> 161 ;
162 [label="gini = 0.0\nsamples = 1\nvalue = [1, 0]"] ;
161 -> 162 ;
163 [label="X[4] <= 3.0\ngini = 0.375\nsamples = 4\nvalue = [1, 3]"] ;
161 -> 163 ;
164 [label="gini = 0.0\nsamples = 2\nvalue = [0, 2]"] ;
163 -> 164 ;
165 [label="X[12] <= 6.0\ngini = 0.5\nsamples = 2\nvalue = [1, 1]"] ;
163 -> 165 ;
166 [label="gini = 0.0\nsamples = 1\nvalue = [1, 0]"] ;
165 -> 166 ;
167 [label="gini = 0.0\nsamples = 1\nvalue = [0, 1]"] ;
165 -> 167 ;
168 [label="gini = 0.0\nsamples = 3\nvalue = [3, 0]"] ;
142 -> 168 ;
169 [label="X[4] <= 2.5\ngini = 0.287\nsamples = 23\nvalue = [4, 19]"] ;
141 -> 169 ;
170 [label="gini = 0.0\nsamples = 9\nvalue = [0, 9]"] ;
169 -> 170 ;
171 [label="X[2] <= 17.0\ngini = 0.408\nsamples = 14\nvalue = [4, 10]"] ;
169 -> 171 ;
172 [label="X[10] <= 332.5\ngini = 0.355\nsamples = 13\nvalue = [3, 10]"] ;
171 -> 172 ;
173 [label="X[10] <= 247.0\ngini = 0.444\nsamples = 9\nvalue = [3, 6]"] ;
172 -> 173 ;
174 [label="X[10] <= 201.5\ngini = 0.278\nsamples = 6\nvalue = [1, 5]"] ;
173 -> 174 ;
175 [label="X[10] <= 186.5\ngini = 0.444\nsamples = 3\nvalue = [1, 2]"] ;
174 -> 175 ;
176 [label="gini = 0.0\nsamples = 2\nvalue = [0, 2]"] ;
175 -> 176 ;
177 [label="gini = 0.0\nsamples = 1\nvalue = [1, 0]"] ;
175 -> 177 ;
178 [label="gini = 0.0\nsamples = 3\nvalue = [0, 3]"] ;
174 -> 178 ;
179 [label="X[12] <= 11.5\ngini = 0.444\nsamples = 3\nvalue = [2, 1]"] ;
173 -> 179 ;
180 [label="gini = 0.0\nsamples = 1\nvalue = [0, 1]"] ;
179 -> 180 ;
181 [label="gini = 0.0\nsamples = 2\nvalue = [2, 0]"] ;
179 -> 181 ;
182 [label="gini = 0.0\nsamples = 4\nvalue = [0, 4]"] ;
172 -> 182 ;
183 [label="gini = 0.0\nsamples = 1\nvalue = [1, 0]"] ;
171 -> 183 ;
184 [label="X[10] <= 444.0\ngini = 0.33\nsamples = 72\nvalue = [15, 57]"] ;
140 -> 184 ;
185 [label="gini = 0.0\nsamples = 13\nvalue = [0, 13]"] ;
184 -> 185 ;
186 [label="X[12] <= 5.5\ngini = 0.379\nsamples = 59\nvalue = [15, 44]"] ;
184 -> 186 ;
187 [label="X[10] <= 447.5\ngini = 0.198\nsamples = 27\nvalue = [3, 24]"] ;
186 -> 187 ;
188 [label="gini = 0.0\nsamples = 1\nvalue = [1, 0]"] ;
187 -> 188 ;
189 [label="X[10] <= 565.0\ngini = 0.142\nsamples = 26\nvalue = [2, 24]"] ;
187 -> 189 ;
190 [label="gini = 0.0\nsamples = 14\nvalue = [0, 14]"] ;
189 -> 190 ;
191 [label="X[10] <= 576.0\ngini = 0.278\nsamples = 12\nvalue = [2, 10]"] ;
189 -> 191 ;
192 [label="gini = 0.0\nsamples = 1\nvalue = [1, 0]"] ;
191 -> 192 ;
193 [label="X[4] <= 1.5\ngini = 0.165\nsamples = 11\nvalue = [1, 10]"] ;
191 -> 193 ;
194 [label="X[12] <= 3.5\ngini = 0.375\nsamples = 4\nvalue = [1, 3]"] ;
193 -> 194 ;
195 [label="gini = 0.0\nsamples = 3\nvalue = [0, 3]"] ;
194 -> 195 ;
196 [label="gini = 0.0\nsamples = 1\nvalue = [1, 0]"] ;
194 -> 196 ;
197 [label="gini = 0.0\nsamples = 7\nvalue = [0, 7]"] ;
193 -> 197 ;
198 [label="X[12] <= 7.5\ngini = 0.469\nsamples = 32\nvalue = [12, 20]"] ;
186 -> 198 ;
199 [label="X[10] <= 462.5\ngini = 0.42\nsamples = 10\nvalue = [7, 3]"] ;
198 -> 199 ;
200 [label="gini = 0.0\nsamples = 2\nvalue = [0, 2]"] ;
199 -> 200 ;
201 [label="X[2] <= 13.5\ngini = 0.219\nsamples = 8\nvalue = [7, 1]"] ;
199 -> 201 ;
202 [label="gini = 0.0\nsamples = 6\nvalue = [6, 0]"] ;
201 -> 202 ;
203 [label="X[10] <= 658.5\ngini = 0.5\nsamples = 2\nvalue = [1, 1]"] ;
201 -> 203 ;
204 [label="gini = 0.0\nsamples = 1\nvalue = [0, 1]"] ;
203 -> 204 ;
205 [label="gini = 0.0\nsamples = 1\nvalue = [1, 0]"] ;
203 -> 205 ;
206 [label="X[10] <= 588.5\ngini = 0.351\nsamples = 22\nvalue = [5, 17]"] ;
198 -> 206 ;
207 [label="gini = 0.0\nsamples = 7\nvalue = [0, 7]"] ;
206 -> 207 ;
208 [label="X[10] <= 625.0\ngini = 0.444\nsamples = 15\nvalue = [5, 10]"] ;
206 -> 208 ;
209 [label="X[11] <= 0.5\ngini = 0.48\nsamples = 5\nvalue = [3, 2]"] ;
208 -> 209 ;
210 [label="gini = 0.0\nsamples = 2\nvalue = [2, 0]"] ;
209 -> 210 ;
211 [label="X[12] <= 16.0\ngini = 0.444\nsamples = 3\nvalue = [1, 2]"] ;
209 -> 211 ;
212 [label="gini = 0.0\nsamples = 2\nvalue = [0, 2]"] ;
211 -> 212 ;
213 [label="gini = 0.0\nsamples = 1\nvalue = [1, 0]"] ;
211 -> 213 ;
214 [label="X[12] <= 14.0\ngini = 0.32\nsamples = 10\nvalue = [2, 8]"] ;
208 -> 214 ;
215 [label="gini = 0.0\nsamples = 4\nvalue = [0, 4]"] ;
214 -> 215 ;
216 [label="X[11] <= 0.5\ngini = 0.444\nsamples = 6\nvalue = [2, 4]"] ;
214 -> 216 ;
217 [label="gini = 0.0\nsamples = 3\nvalue = [0, 3]"] ;
216 -> 217 ;
218 [label="X[10] <= 703.5\ngini = 0.444\nsamples = 3\nvalue = [2, 1]"] ;
216 -> 218 ;
219 [label="gini = 0.0\nsamples = 2\nvalue = [2, 0]"] ;
218 -> 219 ;
220 [label="gini = 0.0\nsamples = 1\nvalue = [0, 1]"] ;
218 -> 220 ;
221 [label="X[2] <= 13.5\ngini = 0.5\nsamples = 10\nvalue = [5, 5]"] ;
133 -> 221 ;
222 [label="X[1] <= 0.1\ngini = 0.469\nsamples = 8\nvalue = [5, 3]"] ;
221 -> 222 ;
223 [label="X[12] <= 25.5\ngini = 0.408\nsamples = 7\nvalue = [5, 2]"] ;
222 -> 223 ;
224 [label="gini = 0.0\nsamples = 4\nvalue = [4, 0]"] ;
223 -> 224 ;
225 [label="X[10] <= 399.5\ngini = 0.444\nsamples = 3\nvalue = [1, 2]"] ;
223 -> 225 ;
226 [label="gini = 0.0\nsamples = 1\nvalue = [1, 0]"] ;
225 -> 226 ;
227 [label="gini = 0.0\nsamples = 2\nvalue = [0, 2]"] ;
225 -> 227 ;
228 [label="gini = 0.0\nsamples = 1\nvalue = [0, 1]"] ;
222 -> 228 ;
229 [label="gini = 0.0\nsamples = 2\nvalue = [0, 2]"] ;
221 -> 229 ;
230 [label="X[2] <= 13.5\ngini = 0.375\nsamples = 4\nvalue = [3, 1]"] ;
132 -> 230 ;
231 [label="gini = 0.0\nsamples = 1\nvalue = [0, 1]"] ;
230 -> 231 ;
232 [label="gini = 0.0\nsamples = 3\nvalue = [3, 0]"] ;
230 -> 232 ;
233 [label="gini = 0.0\nsamples = 3\nvalue = [3, 0]"] ;
91 -> 233 ;
234 [label="X[11] <= 14.5\ngini = 0.332\nsamples = 1020\nvalue = [214, 806]"] ;
90 -> 234 ;
235 [label="X[0] <= 0.25\ngini = 0.284\nsamples = 735\nvalue = [126, 609]"] ;
234 -> 235 ;
236 [label="X[10] <= 285.5\ngini = 0.3\nsamples = 664\nvalue = [122, 542]"] ;
235 -> 236 ;
237 [label="X[1] <= 0.95\ngini = 0.343\nsamples = 327\nvalue = [72, 255]"] ;
236 -> 237 ;
238 [label="X[5] <= 0.5\ngini = 0.328\nsamples = 314\nvalue = [65, 249]"] ;
237 -> 238 ;
239 [label="X[4] <= 2.5\ngini = 0.298\nsamples = 269\nvalue = [49, 220]"] ;
238 -> 239 ;
240 [label="X[2] <= 18.5\ngini = 0.218\nsamples = 153\nvalue = [19, 134]"] ;
239 -> 240 ;
241 [label="X[2] <= 13.5\ngini = 0.209\nsamples = 152\nvalue = [18, 134]"] ;
240 -> 241 ;
242 [label="X[12] <= 0.5\ngini = 0.248\nsamples = 124\nvalue = [18, 106]"] ;
241 -> 242 ;
243 [label="X[4] <= 1.5\ngini = 0.469\nsamples = 8\nvalue = [3, 5]"] ;
242 -> 243 ;
244 [label="gini = 0.0\nsamples = 2\nvalue = [0, 2]"] ;
243 -> 244 ;
245 [label="X[10] <= 27.5\ngini = 0.5\nsamples = 6\nvalue = [3, 3]"] ;
243 -> 245 ;
246 [label="gini = 0.0\nsamples = 1\nvalue = [0, 1]"] ;
245 -> 246 ;
247 [label="X[10] <= 209.5\ngini = 0.48\nsamples = 5\nvalue = [3, 2]"] ;
245 -> 247 ;
248 [label="gini = 0.0\nsamples = 2\nvalue = [2, 0]"] ;
247 -> 248 ;
249 [label="X[11] <= 3.5\ngini = 0.444\nsamples = 3\nvalue = [1, 2]"] ;
247 -> 249 ;
250 [label="gini = 0.0\nsamples = 1\nvalue = [0, 1]"] ;
249 -> 250 ;
251 [label="gini = 0.5\nsamples = 2\nvalue = [1, 1]"] ;
249 -> 251 ;
252 [label="X[10] <= 186.5\ngini = 0.225\nsamples = 116\nvalue = [15, 101]"] ;
242 -> 252 ;
253 [label="X[10] <= 182.0\ngini = 0.267\nsamples = 82\nvalue = [13, 69]"] ;
252 -> 253 ;
254 [label="X[11] <= 2.5\ngini = 0.24\nsamples = 79\nvalue = [11, 68]"] ;
253 -> 254 ;
255 [label="X[4] <= 1.5\ngini = 0.42\nsamples = 10\nvalue = [3, 7]"] ;
254 -> 255 ;
256 [label="X[12] <= 20.5\ngini = 0.48\nsamples = 5\nvalue = [3, 2]"] ;
255 -> 256 ;
257 [label="gini = 0.0\nsamples = 3\nvalue = [3, 0]"] ;
256 -> 257 ;
258 [label="gini = 0.0\nsamples = 2\nvalue = [0, 2]"] ;
256 -> 258 ;
259 [label="gini = 0.0\nsamples = 5\nvalue = [0, 5]"] ;
255 -> 259 ;
260 [label="X[11] <= 13.0\ngini = 0.205\nsamples = 69\nvalue = [8, 61]"] ;
254 -> 260 ;
261 [label="X[10] <= 37.5\ngini = 0.187\nsamples = 67\nvalue = [7, 60]"] ;
260 -> 261 ;
262 [label="X[10] <= 20.5\ngini = 0.32\nsamples = 20\nvalue = [4, 16]"] ;
261 -> 262 ;
263 [label="X[12] <= 21.0\ngini = 0.133\nsamples = 14\nvalue = [1, 13]"] ;
262 -> 263 ;
264 [label="gini = 0.0\nsamples = 10\nvalue = [0, 10]"] ;
263 -> 264 ;
265 [label="X[12] <= 23.0\ngini = 0.375\nsamples = 4\nvalue = [1, 3]"] ;
263 -> 265 ;
266 [label="gini = 0.0\nsamples = 1\nvalue = [1, 0]"] ;
265 -> 266 ;
267 [label="gini = 0.0\nsamples = 3\nvalue = [0, 3]"] ;
265 -> 267 ;
268 [label="X[12] <= 19.0\ngini = 0.5\nsamples = 6\nvalue = [3, 3]"] ;
262 -> 268 ;
269 [label="X[10] <= 31.0\ngini = 0.375\nsamples = 4\nvalue = [3, 1]"] ;
268 -> 269 ;
270 [label="gini = 0.0\nsamples = 2\nvalue = [2, 0]"] ;
269 -> 270 ;
271 [label="X[10] <= 34.5\ngini = 0.5\nsamples = 2\nvalue = [1, 1]"] ;
269 -> 271 ;
272 [label="gini = 0.0\nsamples = 1\nvalue = [0, 1]"] ;
271 -> 272 ;
273 [label="gini = 0.0\nsamples = 1\nvalue = [1, 0]"] ;
271 -> 273 ;
274 [label="gini = 0.0\nsamples = 2\nvalue = [0, 2]"] ;
268 -> 274 ;
275 [label="X[12] <= 29.0\ngini = 0.12\nsamples = 47\nvalue = [3, 44]"] ;
261 -> 275 ;
276 [label="X[4] <= 1.5\ngini = 0.087\nsamples = 44\nvalue = [2, 42]"] ;
275 -> 276 ;
277 [label="gini = 0.0\nsamples = 21\nvalue = [0, 21]"] ;
276 -> 277 ;
278 [label="X[10] <= 104.5\ngini = 0.159\nsamples = 23\nvalue = [2, 21]"] ;
276 -> 278 ;
279 [label="gini = 0.0\nsamples = 9\nvalue = [0, 9]"] ;
278 -> 279 ;
280 [label="X[10] <= 120.0\ngini = 0.245\nsamples = 14\nvalue = [2, 12]"] ;
278 -> 280 ;
281 [label="gini = 0.0\nsamples = 1\nvalue = [1, 0]"] ;
280 -> 281 ;
282 [label="X[12] <= 17.0\ngini = 0.142\nsamples = 13\nvalue = [1, 12]"] ;
280 -> 282 ;
283 [label="gini = 0.0\nsamples = 8\nvalue = [0, 8]"] ;
282 -> 283 ;
284 [label="X[12] <= 21.5\ngini = 0.32\nsamples = 5\nvalue = [1, 4]"] ;
282 -> 284 ;
285 [label="gini = 0.0\nsamples = 1\nvalue = [1, 0]"] ;
284 -> 285 ;
286 [label="gini = 0.0\nsamples = 4\nvalue = [0, 4]"] ;
284 -> 286 ;
287 [label="X[10] <= 124.0\ngini = 0.444\nsamples = 3\nvalue = [1, 2]"] ;
275 -> 287 ;
288 [label="gini = 0.0\nsamples = 2\nvalue = [0, 2]"] ;
287 -> 288 ;
289 [label="gini = 0.0\nsamples = 1\nvalue = [1, 0]"] ;
287 -> 289 ;
290 [label="X[2] <= 12.5\ngini = 0.5\nsamples = 2\nvalue = [1, 1]"] ;
260 -> 290 ;
291 [label="gini = 0.0\nsamples = 1\nvalue = [0, 1]"] ;
290 -> 291 ;
292 [label="gini = 0.0\nsamples = 1\nvalue = [1, 0]"] ;
290 -> 292 ;
293 [label="X[11] <= 4.5\ngini = 0.444\nsamples = 3\nvalue = [2, 1]"] ;
253 -> 293 ;
294 [label="gini = 0.0\nsamples = 1\nvalue = [0, 1]"] ;
293 -> 294 ;
295 [label="gini = 0.0\nsamples = 2\nvalue = [2, 0]"] ;
293 -> 295 ;
296 [label="X[12] <= 28.0\ngini = 0.111\nsamples = 34\nvalue = [2, 32]"] ;
252 -> 296 ;
297 [label="X[10] <= 269.0\ngini = 0.061\nsamples = 32\nvalue = [1, 31]"] ;
296 -> 297 ;
298 [label="gini = 0.0\nsamples = 26\nvalue = [0, 26]"] ;
297 -> 298 ;
299 [label="X[10] <= 271.0\ngini = 0.278\nsamples = 6\nvalue = [1, 5]"] ;
297 -> 299 ;
300 [label="gini = 0.0\nsamples = 1\nvalue = [1, 0]"] ;
299 -> 300 ;
301 [label="gini = 0.0\nsamples = 5\nvalue = [0, 5]"] ;
299 -> 301 ;
302 [label="X[1] <= 0.45\ngini = 0.5\nsamples = 2\nvalue = [1, 1]"] ;
296 -> 302 ;
303 [label="gini = 0.0\nsamples = 1\nvalue = [1, 0]"] ;
302 -> 303 ;
304 [label="gini = 0.0\nsamples = 1\nvalue = [0, 1]"] ;
302 -> 304 ;
305 [label="gini = 0.0\nsamples = 28\nvalue = [0, 28]"] ;
241 -> 305 ;
306 [label="gini = 0.0\nsamples = 1\nvalue = [1, 0]"] ;
240 -> 306 ;
307 [label="X[10] <= 278.5\ngini = 0.383\nsamples = 116\nvalue = [30, 86]"] ;
239 -> 307 ;
308 [label="X[10] <= 81.5\ngini = 0.364\nsamples = 113\nvalue = [27, 86]"] ;
307 -> 308 ;
309 [label="X[2] <= 17.0\ngini = 0.265\nsamples = 51\nvalue = [8, 43]"] ;
308 -> 309 ;
310 [label="X[11] <= 6.5\ngini = 0.241\nsamples = 50\nvalue = [7, 43]"] ;
309 -> 310 ;
311 [label="X[12] <= 8.5\ngini = 0.365\nsamples = 25\nvalue = [6, 19]"] ;
310 -> 311 ;
312 [label="X[10] <= 58.0\ngini = 0.494\nsamples = 9\nvalue = [4, 5]"] ;
311 -> 312 ;
313 [label="X[10] <= 41.0\ngini = 0.49\nsamples = 7\nvalue = [4, 3]"] ;
312 -> 313 ;
314 [label="X[12] <= 3.5\ngini = 0.48\nsamples = 5\nvalue = [2, 3]"] ;
313 -> 314 ;
315 [label="gini = 0.0\nsamples = 2\nvalue = [0, 2]"] ;
314 -> 315 ;
316 [label="X[4] <= 3.5\ngini = 0.444\nsamples = 3\nvalue = [2, 1]"] ;
314 -> 316 ;
317 [label="gini = 0.0\nsamples = 1\nvalue = [0, 1]"] ;
316 -> 317 ;
318 [label="gini = 0.0\nsamples = 2\nvalue = [2, 0]"] ;
316 -> 318 ;
319 [label="gini = 0.0\nsamples = 2\nvalue = [2, 0]"] ;
313 -> 319 ;
320 [label="gini = 0.0\nsamples = 2\nvalue = [0, 2]"] ;
312 -> 320 ;
321 [label="X[4] <= 3.5\ngini = 0.219\nsamples = 16\nvalue = [2, 14]"] ;
311 -> 321 ;
322 [label="X[12] <= 23.0\ngini = 0.48\nsamples = 5\nvalue = [2, 3]"] ;
321 -> 322 ;
323 [label="gini = 0.0\nsamples = 2\nvalue = [2, 0]"] ;
322 -> 323 ;
324 [label="gini = 0.0\nsamples = 3\nvalue = [0, 3]"] ;
322 -> 324 ;
325 [label="gini = 0.0\nsamples = 11\nvalue = [0, 11]"] ;
321 -> 325 ;
326 [label="X[10] <= 15.0\ngini = 0.077\nsamples = 25\nvalue = [1, 24]"] ;
310 -> 326 ;
327 [label="X[10] <= 13.0\ngini = 0.32\nsamples = 5\nvalue = [1, 4]"] ;
326 -> 327 ;
328 [label="gini = 0.0\nsamples = 4\nvalue = [0, 4]"] ;
327 -> 328 ;
329 [label="gini = 0.0\nsamples = 1\nvalue = [1, 0]"] ;
327 -> 329 ;
330 [label="gini = 0.0\nsamples = 20\nvalue = [0, 20]"] ;
326 -> 330 ;
331 [label="gini = 0.0\nsamples = 1\nvalue = [1, 0]"] ;
309 -> 331 ;
332 [label="X[10] <= 211.5\ngini = 0.425\nsamples = 62\nvalue = [19, 43]"] ;
308 -> 332 ;
333 [label="X[10] <= 197.5\ngini = 0.476\nsamples = 41\nvalue = [16, 25]"] ;
332 -> 333 ;
334 [label="X[4] <= 3.5\ngini = 0.438\nsamples = 34\nvalue = [11, 23]"] ;
333 -> 334 ;
335 [label="X[10] <= 124.5\ngini = 0.497\nsamples = 13\nvalue = [7, 6]"] ;
334 -> 335 ;
336 [label="gini = 0.0\nsamples = 5\nvalue = [5, 0]"] ;
335 -> 336 ;
337 [label="X[11] <= 7.5\ngini = 0.375\nsamples = 8\nvalue = [2, 6]"] ;
335 -> 337 ;
338 [label="gini = 0.0\nsamples = 4\nvalue = [0, 4]"] ;
337 -> 338 ;
339 [label="X[12] <= 11.5\ngini = 0.5\nsamples = 4\nvalue = [2, 2]"] ;
337 -> 339 ;
340 [label="gini = 0.0\nsamples = 2\nvalue = [2, 0]"] ;
339 -> 340 ;
341 [label="gini = 0.0\nsamples = 2\nvalue = [0, 2]"] ;
339 -> 341 ;
342 [label="X[10] <= 193.5\ngini = 0.308\nsamples = 21\nvalue = [4, 17]"] ;
334 -> 342 ;
343 [label="X[12] <= 27.5\ngini = 0.255\nsamples = 20\nvalue = [3, 17]"] ;
342 -> 343 ;
344 [label="X[10] <= 96.5\ngini = 0.198\nsamples = 18\nvalue = [2, 16]"] ;
343 -> 344 ;
345 [label="X[12] <= 18.0\ngini = 0.444\nsamples = 3\nvalue = [1, 2]"] ;
344 -> 345 ;
346 [label="gini = 0.0\nsamples = 2\nvalue = [0, 2]"] ;
345 -> 346 ;
347 [label="gini = 0.0\nsamples = 1\nvalue = [1, 0]"] ;
345 -> 347 ;
348 [label="X[10] <= 177.5\ngini = 0.124\nsamples = 15\nvalue = [1, 14]"] ;
344 -> 348 ;
349 [label="gini = 0.0\nsamples = 12\nvalue = [0, 12]"] ;
348 -> 349 ;
350 [label="X[10] <= 184.0\ngini = 0.444\nsamples = 3\nvalue = [1, 2]"] ;
348 -> 350 ;
351 [label="gini = 0.0\nsamples = 1\nvalue = [1, 0]"] ;
350 -> 351 ;
352 [label="gini = 0.0\nsamples = 2\nvalue = [0, 2]"] ;
350 -> 352 ;
353 [label="X[10] <= 123.0\ngini = 0.5\nsamples = 2\nvalue = [1, 1]"] ;
343 -> 353 ;
354 [label="gini = 0.0\nsamples = 1\nvalue = [0, 1]"] ;
353 -> 354 ;
355 [label="gini = 0.0\nsamples = 1\nvalue = [1, 0]"] ;
353 -> 355 ;
356 [label="gini = 0.0\nsamples = 1\nvalue = [1, 0]"] ;
342 -> 356 ;
357 [label="X[12] <= 5.0\ngini = 0.408\nsamples = 7\nvalue = [5, 2]"] ;
333 -> 357 ;
358 [label="gini = 0.0\nsamples = 1\nvalue = [0, 1]"] ;
357 -> 358 ;
359 [label="X[11] <= 7.5\ngini = 0.278\nsamples = 6\nvalue = [5, 1]"] ;
357 -> 359 ;
360 [label="gini = 0.0\nsamples = 4\nvalue = [4, 0]"] ;
359 -> 360 ;
361 [label="X[0] <= -0.4\ngini = 0.5\nsamples = 2\nvalue = [1, 1]"] ;
359 -> 361 ;
362 [label="gini = 0.0\nsamples = 1\nvalue = [1, 0]"] ;
361 -> 362 ;
363 [label="gini = 0.0\nsamples = 1\nvalue = [0, 1]"] ;
361 -> 363 ;
364 [label="X[10] <= 246.5\ngini = 0.245\nsamples = 21\nvalue = [3, 18]"] ;
332 -> 364 ;
365 [label="gini = 0.0\nsamples = 11\nvalue = [0, 11]"] ;
364 -> 365 ;
366 [label="X[4] <= 3.5\ngini = 0.42\nsamples = 10\nvalue = [3, 7]"] ;
364 -> 366 ;
367 [label="X[12] <= 3.0\ngini = 0.375\nsamples = 4\nvalue = [3, 1]"] ;
366 -> 367 ;
368 [label="gini = 0.0\nsamples = 1\nvalue = [0, 1]"] ;
367 -> 368 ;
369 [label="gini = 0.0\nsamples = 3\nvalue = [3, 0]"] ;
367 -> 369 ;
370 [label="gini = 0.0\nsamples = 6\nvalue = [0, 6]"] ;
366 -> 370 ;
371 [label="gini = 0.0\nsamples = 3\nvalue = [3, 0]"] ;
307 -> 371 ;
372 [label="X[11] <= 5.5\ngini = 0.458\nsamples = 45\nvalue = [16, 29]"] ;
238 -> 372 ;
373 [label="X[10] <= 280.0\ngini = 0.153\nsamples = 12\nvalue = [1, 11]"] ;
372 -> 373 ;
374 [label="gini = 0.0\nsamples = 11\nvalue = [0, 11]"] ;
373 -> 374 ;
375 [label="gini = 0.0\nsamples = 1\nvalue = [1, 0]"] ;
373 -> 375 ;
376 [label="X[4] <= 3.5\ngini = 0.496\nsamples = 33\nvalue = [15, 18]"] ;
372 -> 376 ;
377 [label="X[2] <= 13.5\ngini = 0.499\nsamples = 29\nvalue = [15, 14]"] ;
376 -> 377 ;
378 [label="X[10] <= 262.0\ngini = 0.488\nsamples = 26\nvalue = [15, 11]"] ;
377 -> 378 ;
379 [label="X[10] <= 228.5\ngini = 0.463\nsamples = 22\nvalue = [14, 8]"] ;
378 -> 379 ;
380 [label="X[10] <= 167.0\ngini = 0.494\nsamples = 18\nvalue = [10, 8]"] ;
379 -> 380 ;
381 [label="X[10] <= 89.5\ngini = 0.426\nsamples = 13\nvalue = [9, 4]"] ;
380 -> 381 ;
382 [label="X[12] <= 4.5\ngini = 0.5\nsamples = 8\nvalue = [4, 4]"] ;
381 -> 382 ;
383 [label="gini = 0.0\nsamples = 2\nvalue = [2, 0]"] ;
382 -> 383 ;
384 [label="X[12] <= 29.5\ngini = 0.444\nsamples = 6\nvalue = [2, 4]"] ;
382 -> 384 ;
385 [label="X[11] <= 6.5\ngini = 0.32\nsamples = 5\nvalue = [1, 4]"] ;
384 -> 385 ;
386 [label="X[4] <= 2.5\ngini = 0.5\nsamples = 2\nvalue = [1, 1]"] ;
385 -> 386 ;
387 [label="gini = 0.0\nsamples = 1\nvalue = [1, 0]"] ;
386 -> 387 ;
388 [label="gini = 0.0\nsamples = 1\nvalue = [0, 1]"] ;
386 -> 388 ;
389 [label="gini = 0.0\nsamples = 3\nvalue = [0, 3]"] ;
385 -> 389 ;
390 [label="gini = 0.0\nsamples = 1\nvalue = [1, 0]"] ;
384 -> 390 ;
391 [label="gini = 0.0\nsamples = 5\nvalue = [5, 0]"] ;
381 -> 391 ;
392 [label="X[12] <= 4.5\ngini = 0.32\nsamples = 5\nvalue = [1, 4]"] ;
380 -> 392 ;
393 [label="gini = 0.0\nsamples = 3\nvalue = [0, 3]"] ;
392 -> 393 ;
394 [label="X[10] <= 194.5\ngini = 0.5\nsamples = 2\nvalue = [1, 1]"] ;
392 -> 394 ;
395 [label="gini = 0.0\nsamples = 1\nvalue = [1, 0]"] ;
394 -> 395 ;
396 [label="gini = 0.0\nsamples = 1\nvalue = [0, 1]"] ;
394 -> 396 ;
397 [label="gini = 0.0\nsamples = 4\nvalue = [4, 0]"] ;
379 -> 397 ;
398 [label="X[10] <= 276.5\ngini = 0.375\nsamples = 4\nvalue = [1, 3]"] ;
378 -> 398 ;
399 [label="gini = 0.0\nsamples = 3\nvalue = [0, 3]"] ;
398 -> 399 ;
400 [label="gini = 0.0\nsamples = 1\nvalue = [1, 0]"] ;
398 -> 400 ;
401 [label="gini = 0.0\nsamples = 3\nvalue = [0, 3]"] ;
377 -> 401 ;
402 [label="gini = 0.0\nsamples = 4\nvalue = [0, 4]"] ;
376 -> 402 ;
403 [label="X[12] <= 7.5\ngini = 0.497\nsamples = 13\nvalue = [7, 6]"] ;
237 -> 403 ;
404 [label="X[10] <= 71.0\ngini = 0.408\nsamples = 7\nvalue = [2, 5]"] ;
403 -> 404 ;
405 [label="gini = 0.0\nsamples = 1\nvalue = [1, 0]"] ;
404 -> 405 ;
406 [label="X[0] <= -0.8\ngini = 0.278\nsamples = 6\nvalue = [1, 5]"] ;
404 -> 406 ;
407 [label="X[1] <= 1.35\ngini = 0.5\nsamples = 2\nvalue = [1, 1]"] ;
406 -> 407 ;
408 [label="gini = 0.0\nsamples = 1\nvalue = [1, 0]"] ;
407 -> 408 ;
409 [label="gini = 0.0\nsamples = 1\nvalue = [0, 1]"] ;
407 -> 409 ;
410 [label="gini = 0.0\nsamples = 4\nvalue = [0, 4]"] ;
406 -> 410 ;
411 [label="X[11] <= 11.0\ngini = 0.278\nsamples = 6\nvalue = [5, 1]"] ;
403 -> 411 ;
412 [label="gini = 0.0\nsamples = 4\nvalue = [4, 0]"] ;
411 -> 412 ;
413 [label="X[12] <= 9.5\ngini = 0.5\nsamples = 2\nvalue = [1, 1]"] ;
411 -> 413 ;
414 [label="gini = 0.0\nsamples = 1\nvalue = [0, 1]"] ;
413 -> 414 ;
415 [label="gini = 0.0\nsamples = 1\nvalue = [1, 0]"] ;
413 -> 415 ;
416 [label="X[11] <= 5.5\ngini = 0.253\nsamples = 337\nvalue = [50, 287]"] ;
236 -> 416 ;
417 [label="X[2] <= 13.5\ngini = 0.337\nsamples = 154\nvalue = [33, 121]"] ;
416 -> 417 ;
418 [label="X[1] <= -0.05\ngini = 0.283\nsamples = 123\nvalue = [21, 102]"] ;
417 -> 418 ;
419 [label="gini = 0.0\nsamples = 1\nvalue = [1, 0]"] ;
418 -> 419 ;
420 [label="X[10] <= 709.0\ngini = 0.274\nsamples = 122\nvalue = [20, 102]"] ;
418 -> 420 ;
421 [label="X[11] <= 4.5\ngini = 0.265\nsamples = 121\nvalue = [19, 102]"] ;
420 -> 421 ;
422 [label="X[12] <= 27.5\ngini = 0.207\nsamples = 94\nvalue = [11, 83]"] ;
421 -> 422 ;
423 [label="X[12] <= 9.5\ngini = 0.18\nsamples = 90\nvalue = [9, 81]"] ;
422 -> 423 ;
424 [label="X[12] <= 4.5\ngini = 0.268\nsamples = 44\nvalue = [7, 37]"] ;
423 -> 424 ;
425 [label="X[10] <= 580.5\ngini = 0.091\nsamples = 21\nvalue = [1, 20]"] ;
424 -> 425 ;
426 [label="gini = 0.0\nsamples = 15\nvalue = [0, 15]"] ;
425 -> 426 ;
427 [label="X[10] <= 617.5\ngini = 0.278\nsamples = 6\nvalue = [1, 5]"] ;
425 -> 427 ;
428 [label="gini = 0.0\nsamples = 1\nvalue = [1, 0]"] ;
427 -> 428 ;
429 [label="gini = 0.0\nsamples = 5\nvalue = [0, 5]"] ;
427 -> 429 ;
430 [label="X[4] <= 3.5\ngini = 0.386\nsamples = 23\nvalue = [6, 17]"] ;
424 -> 430 ;
431 [label="X[4] <= 1.5\ngini = 0.32\nsamples = 20\nvalue = [4, 16]"] ;
430 -> 431 ;
432 [label="X[10] <= 354.0\ngini = 0.5\nsamples = 6\nvalue = [3, 3]"] ;
431 -> 432 ;
433 [label="gini = 0.0\nsamples = 1\nvalue = [0, 1]"] ;
432 -> 433 ;
434 [label="X[10] <= 675.0\ngini = 0.48\nsamples = 5\nvalue = [3, 2]"] ;
432 -> 434 ;
435 [label="X[10] <= 500.5\ngini = 0.375\nsamples = 4\nvalue = [3, 1]"] ;
434 -> 435 ;
436 [label="X[11] <= 3.5\ngini = 0.5\nsamples = 2\nvalue = [1, 1]"] ;
435 -> 436 ;
437 [label="gini = 0.0\nsamples = 1\nvalue = [0, 1]"] ;
436 -> 437 ;
438 [label="gini = 0.0\nsamples = 1\nvalue = [1, 0]"] ;
436 -> 438 ;
439 [label="gini = 0.0\nsamples = 2\nvalue = [2, 0]"] ;
435 -> 439 ;
440 [label="gini = 0.0\nsamples = 1\nvalue = [0, 1]"] ;
434 -> 440 ;
441 [label="X[12] <= 5.5\ngini = 0.133\nsamples = 14\nvalue = [1, 13]"] ;
431 -> 441 ;
442 [label="X[10] <= 479.5\ngini = 0.32\nsamples = 5\nvalue = [1, 4]"] ;
441 -> 442 ;
443 [label="gini = 0.0\nsamples = 1\nvalue = [1, 0]"] ;
442 -> 443 ;
444 [label="gini = 0.0\nsamples = 4\nvalue = [0, 4]"] ;
442 -> 444 ;
445 [label="gini = 0.0\nsamples = 9\nvalue = [0, 9]"] ;
441 -> 445 ;
446 [label="X[10] <= 542.5\ngini = 0.444\nsamples = 3\nvalue = [2, 1]"] ;
430 -> 446 ;
447 [label="gini = 0.0\nsamples = 2\nvalue = [2, 0]"] ;
446 -> 447 ;
448 [label="gini = 0.0\nsamples = 1\nvalue = [0, 1]"] ;
446 -> 448 ;
449 [label="X[10] <= 343.5\ngini = 0.083\nsamples = 46\nvalue = [2, 44]"] ;
423 -> 449 ;
450 [label="X[4] <= 2.0\ngini = 0.375\nsamples = 4\nvalue = [1, 3]"] ;
449 -> 450 ;
451 [label="gini = 0.0\nsamples = 1\nvalue = [1, 0]"] ;
450 -> 451 ;
452 [label="gini = 0.0\nsamples = 3\nvalue = [0, 3]"] ;
450 -> 452 ;
453 [label="X[11] <= 2.5\ngini = 0.046\nsamples = 42\nvalue = [1, 41]"] ;
449 -> 453 ;
454 [label="X[4] <= 3.5\ngini = 0.142\nsamples = 13\nvalue = [1, 12]"] ;
453 -> 454 ;
455 [label="gini = 0.0\nsamples = 10\nvalue = [0, 10]"] ;
454 -> 455 ;
456 [label="X[10] <= 513.0\ngini = 0.444\nsamples = 3\nvalue = [1, 2]"] ;
454 -> 456 ;
457 [label="gini = 0.0\nsamples = 1\nvalue = [1, 0]"] ;
456 -> 457 ;
458 [label="gini = 0.0\nsamples = 2\nvalue = [0, 2]"] ;
456 -> 458 ;
459 [label="gini = 0.0\nsamples = 29\nvalue = [0, 29]"] ;
453 -> 459 ;
460 [label="X[10] <= 576.5\ngini = 0.5\nsamples = 4\nvalue = [2, 2]"] ;
422 -> 460 ;
461 [label="gini = 0.0\nsamples = 2\nvalue = [2, 0]"] ;
460 -> 461 ;
462 [label="gini = 0.0\nsamples = 2\nvalue = [0, 2]"] ;
460 -> 462 ;
463 [label="X[10] <= 614.0\ngini = 0.417\nsamples = 27\nvalue = [8, 19]"] ;
421 -> 463 ;
464 [label="X[10] <= 354.5\ngini = 0.34\nsamples = 23\nvalue = [5, 18]"] ;
463 -> 464 ;
465 [label="gini = 0.0\nsamples = 4\nvalue = [0, 4]"] ;
464 -> 465 ;
466 [label="X[10] <= 371.0\ngini = 0.388\nsamples = 19\nvalue = [5, 14]"] ;
464 -> 466 ;
467 [label="gini = 0.0\nsamples = 2\nvalue = [2, 0]"] ;
466 -> 467 ;
468 [label="X[10] <= 477.5\ngini = 0.291\nsamples = 17\nvalue = [3, 14]"] ;
466 -> 468 ;
469 [label="gini = 0.0\nsamples = 6\nvalue = [0, 6]"] ;
468 -> 469 ;
470 [label="X[10] <= 494.0\ngini = 0.397\nsamples = 11\nvalue = [3, 8]"] ;
468 -> 470 ;
471 [label="gini = 0.0\nsamples = 1\nvalue = [1, 0]"] ;
470 -> 471 ;
472 [label="X[12] <= 19.5\ngini = 0.32\nsamples = 10\nvalue = [2, 8]"] ;
470 -> 472 ;
473 [label="gini = 0.0\nsamples = 6\nvalue = [0, 6]"] ;
472 -> 473 ;
474 [label="X[12] <= 29.0\ngini = 0.5\nsamples = 4\nvalue = [2, 2]"] ;
472 -> 474 ;
475 [label="X[4] <= 2.5\ngini = 0.444\nsamples = 3\nvalue = [2, 1]"] ;
474 -> 475 ;
476 [label="gini = 0.0\nsamples = 2\nvalue = [2, 0]"] ;
475 -> 476 ;
477 [label="gini = 0.0\nsamples = 1\nvalue = [0, 1]"] ;
475 -> 477 ;
478 [label="gini = 0.0\nsamples = 1\nvalue = [0, 1]"] ;
474 -> 478 ;
479 [label="X[12] <= 6.5\ngini = 0.375\nsamples = 4\nvalue = [3, 1]"] ;
463 -> 479 ;
480 [label="gini = 0.0\nsamples = 3\nvalue = [3, 0]"] ;
479 -> 480 ;
481 [label="gini = 0.0\nsamples = 1\nvalue = [0, 1]"] ;
479 -> 481 ;
482 [label="gini = 0.0\nsamples = 1\nvalue = [1, 0]"] ;
420 -> 482 ;
483 [label="X[10] <= 488.0\ngini = 0.475\nsamples = 31\nvalue = [12, 19]"] ;
417 -> 483 ;
484 [label="X[10] <= 378.0\ngini = 0.36\nsamples = 17\nvalue = [4, 13]"] ;
483 -> 484 ;
485 [label="X[10] <= 322.0\ngini = 0.49\nsamples = 7\nvalue = [3, 4]"] ;
484 -> 485 ;
486 [label="gini = 0.0\nsamples = 3\nvalue = [0, 3]"] ;
485 -> 486 ;
487 [label="X[11] <= 3.0\ngini = 0.375\nsamples = 4\nvalue = [3, 1]"] ;
485 -> 487 ;
488 [label="gini = 0.0\nsamples = 1\nvalue = [0, 1]"] ;
487 -> 488 ;
489 [label="gini = 0.0\nsamples = 3\nvalue = [3, 0]"] ;
487 -> 489 ;
490 [label="X[10] <= 465.5\ngini = 0.18\nsamples = 10\nvalue = [1, 9]"] ;
484 -> 490 ;
491 [label="gini = 0.0\nsamples = 7\nvalue = [0, 7]"] ;
490 -> 491 ;
492 [label="X[10] <= 466.5\ngini = 0.444\nsamples = 3\nvalue = [1, 2]"] ;
490 -> 492 ;
493 [label="gini = 0.0\nsamples = 1\nvalue = [1, 0]"] ;
492 -> 493 ;
494 [label="gini = 0.0\nsamples = 2\nvalue = [0, 2]"] ;
492 -> 494 ;
495 [label="X[10] <= 605.5\ngini = 0.49\nsamples = 14\nvalue = [8, 6]"] ;
483 -> 495 ;
496 [label="X[11] <= 2.5\ngini = 0.346\nsamples = 9\nvalue = [7, 2]"] ;
495 -> 496 ;
497 [label="X[12] <= 15.0\ngini = 0.444\nsamples = 3\nvalue = [1, 2]"] ;
496 -> 497 ;
498 [label="gini = 0.0\nsamples = 1\nvalue = [1, 0]"] ;
497 -> 498 ;
499 [label="gini = 0.0\nsamples = 2\nvalue = [0, 2]"] ;
497 -> 499 ;
500 [label="gini = 0.0\nsamples = 6\nvalue = [6, 0]"] ;
496 -> 500 ;
501 [label="X[3] <= 1.5\ngini = 0.32\nsamples = 5\nvalue = [1, 4]"] ;
495 -> 501 ;
502 [label="gini = 0.0\nsamples = 4\nvalue = [0, 4]"] ;
501 -> 502 ;
503 [label="gini = 0.0\nsamples = 1\nvalue = [1, 0]"] ;
501 -> 503 ;
504 [label="X[0] <= -1.35\ngini = 0.169\nsamples = 183\nvalue = [17, 166]"] ;
416 -> 504 ;
505 [label="X[1] <= 0.5\ngini = 0.5\nsamples = 6\nvalue = [3, 3]"] ;
504 -> 505 ;
506 [label="X[12] <= 23.0\ngini = 0.375\nsamples = 4\nvalue = [1, 3]"] ;
505 -> 506 ;
507 [label="gini = 0.0\nsamples = 3\nvalue = [0, 3]"] ;
506 -> 507 ;
508 [label="gini = 0.0\nsamples = 1\nvalue = [1, 0]"] ;
506 -> 508 ;
509 [label="gini = 0.0\nsamples = 2\nvalue = [2, 0]"] ;
505 -> 509 ;
510 [label="X[1] <= 1.6\ngini = 0.146\nsamples = 177\nvalue = [14, 163]"] ;
504 -> 510 ;
511 [label="X[12] <= 19.5\ngini = 0.138\nsamples = 175\nvalue = [13, 162]"] ;
510 -> 511 ;
512 [label="X[12] <= 15.5\ngini = 0.174\nsamples = 135\nvalue = [13, 122]"] ;
511 -> 512 ;
513 [label="X[12] <= 6.5\ngini = 0.134\nsamples = 111\nvalue = [8, 103]"] ;
512 -> 513 ;
514 [label="X[12] <= 3.5\ngini = 0.208\nsamples = 68\nvalue = [8, 60]"] ;
513 -> 514 ;
515 [label="X[4] <= 1.5\ngini = 0.095\nsamples = 40\nvalue = [2, 38]"] ;
514 -> 515 ;
516 [label="X[11] <= 7.5\ngini = 0.231\nsamples = 15\nvalue = [2, 13]"] ;
515 -> 516 ;
517 [label="gini = 0.0\nsamples = 7\nvalue = [0, 7]"] ;
516 -> 517 ;
518 [label="X[10] <= 464.5\ngini = 0.375\nsamples = 8\nvalue = [2, 6]"] ;
516 -> 518 ;
519 [label="gini = 0.0\nsamples = 5\nvalue = [0, 5]"] ;
518 -> 519 ;
520 [label="X[3] <= 1.5\ngini = 0.444\nsamples = 3\nvalue = [2, 1]"] ;
518 -> 520 ;
521 [label="gini = 0.0\nsamples = 1\nvalue = [0, 1]"] ;
520 -> 521 ;
522 [label="gini = 0.0\nsamples = 2\nvalue = [2, 0]"] ;
520 -> 522 ;
523 [label="gini = 0.0\nsamples = 25\nvalue = [0, 25]"] ;
515 -> 523 ;
524 [label="X[10] <= 612.0\ngini = 0.337\nsamples = 28\nvalue = [6, 22]"] ;
514 -> 524 ;
525 [label="X[10] <= 560.5\ngini = 0.386\nsamples = 23\nvalue = [6, 17]"] ;
524 -> 525 ;
526 [label="X[4] <= 3.5\ngini = 0.351\nsamples = 22\nvalue = [5, 17]"] ;
525 -> 526 ;
527 [label="X[4] <= 1.5\ngini = 0.278\nsamples = 18\nvalue = [3, 15]"] ;
526 -> 527 ;
528 [label="X[10] <= 344.5\ngini = 0.444\nsamples = 9\nvalue = [3, 6]"] ;
527 -> 528 ;
529 [label="gini = 0.0\nsamples = 2\nvalue = [0, 2]"] ;
528 -> 529 ;
530 [label="X[10] <= 480.5\ngini = 0.49\nsamples = 7\nvalue = [3, 4]"] ;
528 -> 530 ;
531 [label="X[10] <= 457.5\ngini = 0.48\nsamples = 5\nvalue = [3, 2]"] ;
530 -> 531 ;
532 [label="X[10] <= 392.0\ngini = 0.444\nsamples = 3\nvalue = [1, 2]"] ;
531 -> 532 ;
533 [label="gini = 0.0\nsamples = 1\nvalue = [1, 0]"] ;
532 -> 533 ;
534 [label="gini = 0.0\nsamples = 2\nvalue = [0, 2]"] ;
532 -> 534 ;
535 [label="gini = 0.0\nsamples = 2\nvalue = [2, 0]"] ;
531 -> 535 ;
536 [label="gini = 0.0\nsamples = 2\nvalue = [0, 2]"] ;
530 -> 536 ;
537 [label="gini = 0.0\nsamples = 9\nvalue = [0, 9]"] ;
527 -> 537 ;
538 [label="X[5] <= 0.5\ngini = 0.5\nsamples = 4\nvalue = [2, 2]"] ;
526 -> 538 ;
539 [label="X[11] <= 6.5\ngini = 0.444\nsamples = 3\nvalue = [2, 1]"] ;
538 -> 539 ;
540 [label="gini = 0.0\nsamples = 1\nvalue = [1, 0]"] ;
539 -> 540 ;
541 [label="X[10] <= 361.5\ngini = 0.5\nsamples = 2\nvalue = [1, 1]"] ;
539 -> 541 ;
542 [label="gini = 0.0\nsamples = 1\nvalue = [1, 0]"] ;
541 -> 542 ;
543 [label="gini = 0.0\nsamples = 1\nvalue = [0, 1]"] ;
541 -> 543 ;
544 [label="gini = 0.0\nsamples = 1\nvalue = [0, 1]"] ;
538 -> 544 ;
545 [label="gini = 0.0\nsamples = 1\nvalue = [1, 0]"] ;
525 -> 545 ;
546 [label="gini = 0.0\nsamples = 5\nvalue = [0, 5]"] ;
524 -> 546 ;
547 [label="gini = 0.0\nsamples = 43\nvalue = [0, 43]"] ;
513 -> 547 ;
548 [label="X[4] <= 2.5\ngini = 0.33\nsamples = 24\nvalue = [5, 19]"] ;
512 -> 548 ;
549 [label="gini = 0.0\nsamples = 12\nvalue = [0, 12]"] ;
548 -> 549 ;
550 [label="X[10] <= 390.0\ngini = 0.486\nsamples = 12\nvalue = [5, 7]"] ;
548 -> 550 ;
551 [label="gini = 0.0\nsamples = 3\nvalue = [3, 0]"] ;
550 -> 551 ;
552 [label="X[10] <= 487.5\ngini = 0.346\nsamples = 9\nvalue = [2, 7]"] ;
550 -> 552 ;
553 [label="X[12] <= 18.5\ngini = 0.48\nsamples = 5\nvalue = [2, 3]"] ;
552 -> 553 ;
554 [label="X[10] <= 399.0\ngini = 0.444\nsamples = 3\nvalue = [2, 1]"] ;
553 -> 554 ;
555 [label="gini = 0.0\nsamples = 1\nvalue = [0, 1]"] ;
554 -> 555 ;
556 [label="gini = 0.0\nsamples = 2\nvalue = [2, 0]"] ;
554 -> 556 ;
557 [label="gini = 0.0\nsamples = 2\nvalue = [0, 2]"] ;
553 -> 557 ;
558 [label="gini = 0.0\nsamples = 4\nvalue = [0, 4]"] ;
552 -> 558 ;
559 [label="gini = 0.0\nsamples = 40\nvalue = [0, 40]"] ;
511 -> 559 ;
560 [label="X[0] <= -0.55\ngini = 0.5\nsamples = 2\nvalue = [1, 1]"] ;
510 -> 560 ;
561 [label="gini = 0.0\nsamples = 1\nvalue = [1, 0]"] ;
560 -> 561 ;
562 [label="gini = 0.0\nsamples = 1\nvalue = [0, 1]"] ;
560 -> 562 ;
563 [label="X[10] <= 2.5\ngini = 0.106\nsamples = 71\nvalue = [4, 67]"] ;
235 -> 563 ;
564 [label="gini = 0.0\nsamples = 1\nvalue = [1, 0]"] ;
563 -> 564 ;
565 [label="X[12] <= 22.5\ngini = 0.082\nsamples = 70\nvalue = [3, 67]"] ;
563 -> 565 ;
566 [label="gini = 0.0\nsamples = 51\nvalue = [0, 51]"] ;
565 -> 566 ;
567 [label="X[11] <= 13.0\ngini = 0.266\nsamples = 19\nvalue = [3, 16]"] ;
565 -> 567 ;
568 [label="X[12] <= 23.5\ngini = 0.111\nsamples = 17\nvalue = [1, 16]"] ;
567 -> 568 ;
569 [label="gini = 0.0\nsamples = 1\nvalue = [1, 0]"] ;
568 -> 569 ;
570 [label="gini = 0.0\nsamples = 16\nvalue = [0, 16]"] ;
568 -> 570 ;
571 [label="gini = 0.0\nsamples = 2\nvalue = [2, 0]"] ;
567 -> 571 ;
572 [label="X[12] <= 4.5\ngini = 0.427\nsamples = 285\nvalue = [88, 197]"] ;
234 -> 572 ;
573 [label="X[10] <= 686.5\ngini = 0.357\nsamples = 103\nvalue = [24, 79]"] ;
572 -> 573 ;
574 [label="X[12] <= 3.5\ngini = 0.337\nsamples = 98\nvalue = [21, 77]"] ;
573 -> 574 ;
575 [label="X[3] <= 1.5\ngini = 0.375\nsamples = 84\nvalue = [21, 63]"] ;
574 -> 575 ;
576 [label="gini = 0.0\nsamples = 9\nvalue = [0, 9]"] ;
575 -> 576 ;
577 [label="X[11] <= 18.5\ngini = 0.403\nsamples = 75\nvalue = [21, 54]"] ;
575 -> 577 ;
578 [label="X[10] <= 73.5\ngini = 0.344\nsamples = 59\nvalue = [13, 46]"] ;
577 -> 578 ;
579 [label="X[10] <= 42.5\ngini = 0.5\nsamples = 8\nvalue = [4, 4]"] ;
578 -> 579 ;
580 [label="X[12] <= 1.5\ngini = 0.32\nsamples = 5\nvalue = [1, 4]"] ;
579 -> 580 ;
581 [label="gini = 0.0\nsamples = 3\nvalue = [0, 3]"] ;
580 -> 581 ;
582 [label="X[10] <= 4.0\ngini = 0.5\nsamples = 2\nvalue = [1, 1]"] ;
580 -> 582 ;
583 [label="gini = 0.0\nsamples = 1\nvalue = [1, 0]"] ;
582 -> 583 ;
584 [label="gini = 0.0\nsamples = 1\nvalue = [0, 1]"] ;
582 -> 584 ;
585 [label="gini = 0.0\nsamples = 3\nvalue = [3, 0]"] ;
579 -> 585 ;
586 [label="X[0] <= 1.55\ngini = 0.291\nsamples = 51\nvalue = [9, 42]"] ;
578 -> 586 ;
587 [label="X[12] <= 0.5\ngini = 0.269\nsamples = 50\nvalue = [8, 42]"] ;
586 -> 587 ;
588 [label="X[10] <= 152.0\ngini = 0.415\nsamples = 17\nvalue = [5, 12]"] ;
587 -> 588 ;
589 [label="gini = 0.0\nsamples = 4\nvalue = [0, 4]"] ;
588 -> 589 ;
590 [label="X[10] <= 165.5\ngini = 0.473\nsamples = 13\nvalue = [5, 8]"] ;
588 -> 590 ;
591 [label="gini = 0.0\nsamples = 1\nvalue = [1, 0]"] ;
590 -> 591 ;
592 [label="X[10] <= 256.0\ngini = 0.444\nsamples = 12\nvalue = [4, 8]"] ;
590 -> 592 ;
593 [label="gini = 0.0\nsamples = 3\nvalue = [0, 3]"] ;
592 -> 593 ;
594 [label="X[10] <= 500.0\ngini = 0.494\nsamples = 9\nvalue = [4, 5]"] ;
592 -> 594 ;
595 [label="X[4] <= 2.5\ngini = 0.49\nsamples = 7\nvalue = [4, 3]"] ;
594 -> 595 ;
596 [label="gini = 0.0\nsamples = 2\nvalue = [2, 0]"] ;
595 -> 596 ;
597 [label="X[10] <= 415.5\ngini = 0.48\nsamples = 5\nvalue = [2, 3]"] ;
595 -> 597 ;
598 [label="X[5] <= 0.5\ngini = 0.444\nsamples = 3\nvalue = [2, 1]"] ;
597 -> 598 ;
599 [label="gini = 0.0\nsamples = 2\nvalue = [2, 0]"] ;
598 -> 599 ;
600 [label="gini = 0.0\nsamples = 1\nvalue = [0, 1]"] ;
598 -> 600 ;
601 [label="gini = 0.0\nsamples = 2\nvalue = [0, 2]"] ;
597 -> 601 ;
602 [label="gini = 0.0\nsamples = 2\nvalue = [0, 2]"] ;
594 -> 602 ;
603 [label="X[0] <= -1.1\ngini = 0.165\nsamples = 33\nvalue = [3, 30]"] ;
587 -> 603 ;
604 [label="X[0] <= -1.3\ngini = 0.5\nsamples = 2\nvalue = [1, 1]"] ;
603 -> 604 ;
605 [label="gini = 0.0\nsamples = 1\nvalue = [0, 1]"] ;
604 -> 605 ;
606 [label="gini = 0.0\nsamples = 1\nvalue = [1, 0]"] ;
604 -> 606 ;
607 [label="X[11] <= 17.5\ngini = 0.121\nsamples = 31\nvalue = [2, 29]"] ;
603 -> 607 ;
608 [label="gini = 0.0\nsamples = 16\nvalue = [0, 16]"] ;
607 -> 608 ;
609 [label="X[4] <= 2.5\ngini = 0.231\nsamples = 15\nvalue = [2, 13]"] ;
607 -> 609 ;
610 [label="gini = 0.0\nsamples = 4\nvalue = [0, 4]"] ;
609 -> 610 ;
611 [label="X[10] <= 584.0\ngini = 0.298\nsamples = 11\nvalue = [2, 9]"] ;
609 -> 611 ;
612 [label="X[4] <= 3.5\ngini = 0.408\nsamples = 7\nvalue = [2, 5]"] ;
611 -> 612 ;
613 [label="gini = 0.0\nsamples = 1\nvalue = [1, 0]"] ;
612 -> 613 ;
614 [label="X[10] <= 248.0\ngini = 0.278\nsamples = 6\nvalue = [1, 5]"] ;
612 -> 614 ;
615 [label="gini = 0.0\nsamples = 3\nvalue = [0, 3]"] ;
614 -> 615 ;
616 [label="X[10] <= 327.0\ngini = 0.444\nsamples = 3\nvalue = [1, 2]"] ;
614 -> 616 ;
617 [label="gini = 0.0\nsamples = 1\nvalue = [1, 0]"] ;
616 -> 617 ;
618 [label="gini = 0.0\nsamples = 2\nvalue = [0, 2]"] ;
616 -> 618 ;
619 [label="gini = 0.0\nsamples = 4\nvalue = [0, 4]"] ;
611 -> 619 ;
620 [label="gini = 0.0\nsamples = 1\nvalue = [1, 0]"] ;
586 -> 620 ;
621 [label="X[10] <= 257.0\ngini = 0.5\nsamples = 16\nvalue = [8, 8]"] ;
577 -> 621 ;
622 [label="gini = 0.0\nsamples = 2\nvalue = [0, 2]"] ;
621 -> 622 ;
623 [label="X[12] <= 2.5\ngini = 0.49\nsamples = 14\nvalue = [8, 6]"] ;
621 -> 623 ;
624 [label="X[10] <= 640.5\ngini = 0.375\nsamples = 8\nvalue = [6, 2]"] ;
623 -> 624 ;
625 [label="X[10] <= 350.0\ngini = 0.245\nsamples = 7\nvalue = [6, 1]"] ;
624 -> 625 ;
626 [label="X[5] <= 0.5\ngini = 0.5\nsamples = 2\nvalue = [1, 1]"] ;
625 -> 626 ;
627 [label="gini = 0.0\nsamples = 1\nvalue = [0, 1]"] ;
626 -> 627 ;
628 [label="gini = 0.0\nsamples = 1\nvalue = [1, 0]"] ;
626 -> 628 ;
629 [label="gini = 0.0\nsamples = 5\nvalue = [5, 0]"] ;
625 -> 629 ;
630 [label="gini = 0.0\nsamples = 1\nvalue = [0, 1]"] ;
624 -> 630 ;
631 [label="X[10] <= 621.0\ngini = 0.444\nsamples = 6\nvalue = [2, 4]"] ;
623 -> 631 ;
632 [label="X[10] <= 465.5\ngini = 0.32\nsamples = 5\nvalue = [1, 4]"] ;
631 -> 632 ;
633 [label="X[10] <= 395.5\ngini = 0.5\nsamples = 2\nvalue = [1, 1]"] ;
632 -> 633 ;
634 [label="gini = 0.0\nsamples = 1\nvalue = [0, 1]"] ;
633 -> 634 ;
635 [label="gini = 0.0\nsamples = 1\nvalue = [1, 0]"] ;
633 -> 635 ;
636 [label="gini = 0.0\nsamples = 3\nvalue = [0, 3]"] ;
632 -> 636 ;
637 [label="gini = 0.0\nsamples = 1\nvalue = [1, 0]"] ;
631 -> 637 ;
638 [label="gini = 0.0\nsamples = 14\nvalue = [0, 14]"] ;
574 -> 638 ;
639 [label="X[10] <= 692.5\ngini = 0.48\nsamples = 5\nvalue = [3, 2]"] ;
573 -> 639 ;
640 [label="gini = 0.0\nsamples = 2\nvalue = [2, 0]"] ;
639 -> 640 ;
641 [label="X[4] <= 2.0\ngini = 0.444\nsamples = 3\nvalue = [1, 2]"] ;
639 -> 641 ;
642 [label="gini = 0.0\nsamples = 1\nvalue = [1, 0]"] ;
641 -> 642 ;
643 [label="gini = 0.0\nsamples = 2\nvalue = [0, 2]"] ;
641 -> 643 ;
644 [label="X[12] <= 22.5\ngini = 0.456\nsamples = 182\nvalue = [64, 118]"] ;
572 -> 644 ;
645 [label="X[11] <= 15.5\ngini = 0.474\nsamples = 158\nvalue = [61, 97]"] ;
644 -> 645 ;
646 [label="gini = 0.0\nsamples = 2\nvalue = [2, 0]"] ;
645 -> 646 ;
647 [label="X[4] <= 2.5\ngini = 0.47\nsamples = 156\nvalue = [59, 97]"] ;
645 -> 647 ;
648 [label="X[10] <= 659.5\ngini = 0.439\nsamples = 86\nvalue = [28, 58]"] ;
647 -> 648 ;
649 [label="X[10] <= 647.5\ngini = 0.452\nsamples = 81\nvalue = [28, 53]"] ;
648 -> 649 ;
650 [label="X[12] <= 18.5\ngini = 0.442\nsamples = 79\nvalue = [26, 53]"] ;
649 -> 650 ;
651 [label="X[2] <= 19.0\ngini = 0.406\nsamples = 60\nvalue = [17, 43]"] ;
650 -> 651 ;
652 [label="X[10] <= 16.0\ngini = 0.395\nsamples = 59\nvalue = [16, 43]"] ;
651 -> 652 ;
653 [label="gini = 0.0\nsamples = 1\nvalue = [1, 0]"] ;
652 -> 653 ;
654 [label="X[10] <= 477.5\ngini = 0.383\nsamples = 58\nvalue = [15, 43]"] ;
652 -> 654 ;
655 [label="X[10] <= 313.5\ngini = 0.314\nsamples = 41\nvalue = [8, 33]"] ;
654 -> 655 ;
656 [label="X[11] <= 17.5\ngini = 0.383\nsamples = 31\nvalue = [8, 23]"] ;
655 -> 656 ;
657 [label="gini = 0.0\nsamples = 9\nvalue = [0, 9]"] ;
656 -> 657 ;
658 [label="X[12] <= 15.5\ngini = 0.463\nsamples = 22\nvalue = [8, 14]"] ;
656 -> 658 ;
659 [label="X[10] <= 52.0\ngini = 0.488\nsamples = 19\nvalue = [8, 11]"] ;
658 -> 659 ;
660 [label="gini = 0.0\nsamples = 2\nvalue = [2, 0]"] ;
659 -> 660 ;
661 [label="X[10] <= 179.0\ngini = 0.457\nsamples = 17\nvalue = [6, 11]"] ;
659 -> 661 ;
662 [label="X[12] <= 11.5\ngini = 0.32\nsamples = 10\nvalue = [2, 8]"] ;
661 -> 662 ;
663 [label="gini = 0.0\nsamples = 6\nvalue = [0, 6]"] ;
662 -> 663 ;
664 [label="X[4] <= 1.5\ngini = 0.5\nsamples = 4\nvalue = [2, 2]"] ;
662 -> 664 ;
665 [label="gini = 0.0\nsamples = 1\nvalue = [1, 0]"] ;
664 -> 665 ;
666 [label="X[11] <= 18.5\ngini = 0.444\nsamples = 3\nvalue = [1, 2]"] ;
664 -> 666 ;
667 [label="gini = 0.0\nsamples = 2\nvalue = [0, 2]"] ;
666 -> 667 ;
668 [label="gini = 0.0\nsamples = 1\nvalue = [1, 0]"] ;
666 -> 668 ;
669 [label="X[10] <= 213.0\ngini = 0.49\nsamples = 7\nvalue = [4, 3]"] ;
661 -> 669 ;
670 [label="gini = 0.0\nsamples = 2\nvalue = [2, 0]"] ;
669 -> 670 ;
671 [label="X[12] <= 9.5\ngini = 0.48\nsamples = 5\nvalue = [2, 3]"] ;
669 -> 671 ;
672 [label="X[4] <= 1.5\ngini = 0.444\nsamples = 3\nvalue = [2, 1]"] ;
671 -> 672 ;
673 [label="gini = 0.0\nsamples = 1\nvalue = [1, 0]"] ;
672 -> 673 ;
674 [label="X[12] <= 7.5\ngini = 0.5\nsamples = 2\nvalue = [1, 1]"] ;
672 -> 674 ;
675 [label="gini = 0.0\nsamples = 1\nvalue = [0, 1]"] ;
674 -> 675 ;
676 [label="gini = 0.0\nsamples = 1\nvalue = [1, 0]"] ;
674 -> 676 ;
677 [label="gini = 0.0\nsamples = 2\nvalue = [0, 2]"] ;
671 -> 677 ;
678 [label="gini = 0.0\nsamples = 3\nvalue = [0, 3]"] ;
658 -> 678 ;
679 [label="gini = 0.0\nsamples = 10\nvalue = [0, 10]"] ;
655 -> 679 ;
680 [label="X[10] <= 595.5\ngini = 0.484\nsamples = 17\nvalue = [7, 10]"] ;
654 -> 680 ;
681 [label="X[12] <= 15.0\ngini = 0.497\nsamples = 13\nvalue = [7, 6]"] ;
680 -> 681 ;
682 [label="X[10] <= 486.5\ngini = 0.496\nsamples = 11\nvalue = [5, 6]"] ;
681 -> 682 ;
683 [label="gini = 0.0\nsamples = 2\nvalue = [2, 0]"] ;
682 -> 683 ;
684 [label="X[12] <= 6.5\ngini = 0.444\nsamples = 9\nvalue = [3, 6]"] ;
682 -> 684 ;
685 [label="gini = 0.0\nsamples = 1\nvalue = [1, 0]"] ;
684 -> 685 ;
686 [label="X[5] <= 0.5\ngini = 0.375\nsamples = 8\nvalue = [2, 6]"] ;
684 -> 686 ;
687 [label="X[11] <= 17.5\ngini = 0.245\nsamples = 7\nvalue = [1, 6]"] ;
686 -> 687 ;
688 [label="X[12] <= 9.5\ngini = 0.444\nsamples = 3\nvalue = [1, 2]"] ;
687 -> 688 ;
689 [label="gini = 0.0\nsamples = 1\nvalue = [1, 0]"] ;
688 -> 689 ;
690 [label="gini = 0.0\nsamples = 2\nvalue = [0, 2]"] ;
688 -> 690 ;
691 [label="gini = 0.0\nsamples = 4\nvalue = [0, 4]"] ;
687 -> 691 ;
692 [label="gini = 0.0\nsamples = 1\nvalue = [1, 0]"] ;
686 -> 692 ;
693 [label="gini = 0.0\nsamples = 2\nvalue = [2, 0]"] ;
681 -> 693 ;
694 [label="gini = 0.0\nsamples = 4\nvalue = [0, 4]"] ;
680 -> 694 ;
695 [label="gini = 0.0\nsamples = 1\nvalue = [1, 0]"] ;
651 -> 695 ;
696 [label="X[10] <= 212.5\ngini = 0.499\nsamples = 19\nvalue = [9, 10]"] ;
650 -> 696 ;
697 [label="X[10] <= 11.0\ngini = 0.245\nsamples = 7\nvalue = [6, 1]"] ;
696 -> 697 ;
698 [label="gini = 0.0\nsamples = 1\nvalue = [0, 1]"] ;
697 -> 698 ;
699 [label="gini = 0.0\nsamples = 6\nvalue = [6, 0]"] ;
697 -> 699 ;
700 [label="X[10] <= 512.0\ngini = 0.375\nsamples = 12\nvalue = [3, 9]"] ;
696 -> 700 ;
701 [label="gini = 0.0\nsamples = 6\nvalue = [0, 6]"] ;
700 -> 701 ;
702 [label="X[11] <= 18.0\ngini = 0.5\nsamples = 6\nvalue = [3, 3]"] ;
700 -> 702 ;
703 [label="X[11] <= 16.5\ngini = 0.375\nsamples = 4\nvalue = [3, 1]"] ;
702 -> 703 ;
704 [label="gini = 0.0\nsamples = 1\nvalue = [0, 1]"] ;
703 -> 704 ;
705 [label="gini = 0.0\nsamples = 3\nvalue = [3, 0]"] ;
703 -> 705 ;
706 [label="gini = 0.0\nsamples = 2\nvalue = [0, 2]"] ;
702 -> 706 ;
707 [label="gini = 0.0\nsamples = 2\nvalue = [2, 0]"] ;
649 -> 707 ;
708 [label="gini = 0.0\nsamples = 5\nvalue = [0, 5]"] ;
648 -> 708 ;
709 [label="X[10] <= 287.5\ngini = 0.493\nsamples = 70\nvalue = [31, 39]"] ;
647 -> 709 ;
710 [label="X[10] <= 193.0\ngini = 0.495\nsamples = 29\nvalue = [16, 13]"] ;
709 -> 710 ;
711 [label="X[12] <= 14.5\ngini = 0.484\nsamples = 17\nvalue = [7, 10]"] ;
710 -> 711 ;
712 [label="X[10] <= 121.5\ngini = 0.346\nsamples = 9\nvalue = [2, 7]"] ;
711 -> 712 ;
713 [label="X[12] <= 8.0\ngini = 0.219\nsamples = 8\nvalue = [1, 7]"] ;
712 -> 713 ;
714 [label="X[4] <= 3.5\ngini = 0.444\nsamples = 3\nvalue = [1, 2]"] ;
713 -> 714 ;
715 [label="gini = 0.0\nsamples = 1\nvalue = [1, 0]"] ;
714 -> 715 ;
716 [label="gini = 0.0\nsamples = 2\nvalue = [0, 2]"] ;
714 -> 716 ;
717 [label="gini = 0.0\nsamples = 5\nvalue = [0, 5]"] ;
713 -> 717 ;
718 [label="gini = 0.0\nsamples = 1\nvalue = [1, 0]"] ;
712 -> 718 ;
719 [label="X[10] <= 117.5\ngini = 0.469\nsamples = 8\nvalue = [5, 3]"] ;
711 -> 719 ;
720 [label="X[10] <= 1.0\ngini = 0.278\nsamples = 6\nvalue = [5, 1]"] ;
719 -> 720 ;
721 [label="gini = 0.0\nsamples = 1\nvalue = [0, 1]"] ;
720 -> 721 ;
722 [label="gini = 0.0\nsamples = 5\nvalue = [5, 0]"] ;
720 -> 722 ;
723 [label="gini = 0.0\nsamples = 2\nvalue = [0, 2]"] ;
719 -> 723 ;
724 [label="X[12] <= 17.5\ngini = 0.375\nsamples = 12\nvalue = [9, 3]"] ;
710 -> 724 ;
725 [label="X[11] <= 16.5\ngini = 0.298\nsamples = 11\nvalue = [9, 2]"] ;
724 -> 725 ;
726 [label="gini = 0.0\nsamples = 1\nvalue = [0, 1]"] ;
725 -> 726 ;
727 [label="X[4] <= 3.5\ngini = 0.18\nsamples = 10\nvalue = [9, 1]"] ;
725 -> 727 ;
728 [label="X[12] <= 8.5\ngini = 0.444\nsamples = 3\nvalue = [2, 1]"] ;
727 -> 728 ;
729 [label="gini = 0.0\nsamples = 2\nvalue = [2, 0]"] ;
728 -> 729 ;
730 [label="gini = 0.0\nsamples = 1\nvalue = [0, 1]"] ;
728 -> 730 ;
731 [label="gini = 0.0\nsamples = 7\nvalue = [7, 0]"] ;
727 -> 731 ;
732 [label="gini = 0.0\nsamples = 1\nvalue = [0, 1]"] ;
724 -> 732 ;
733 [label="X[10] <= 329.5\ngini = 0.464\nsamples = 41\nvalue = [15, 26]"] ;
709 -> 733 ;
734 [label="gini = 0.0\nsamples = 7\nvalue = [0, 7]"] ;
733 -> 734 ;
735 [label="X[12] <= 12.5\ngini = 0.493\nsamples = 34\nvalue = [15, 19]"] ;
733 -> 735 ;
736 [label="X[12] <= 9.5\ngini = 0.48\nsamples = 20\nvalue = [12, 8]"] ;
735 -> 736 ;
737 [label="X[10] <= 677.0\ngini = 0.49\nsamples = 14\nvalue = [6, 8]"] ;
736 -> 737 ;
738 [label="X[10] <= 514.5\ngini = 0.444\nsamples = 12\nvalue = [4, 8]"] ;
737 -> 738 ;
739 [label="X[4] <= 3.5\ngini = 0.49\nsamples = 7\nvalue = [4, 3]"] ;
738 -> 739 ;
740 [label="X[10] <= 411.5\ngini = 0.375\nsamples = 4\nvalue = [1, 3]"] ;
739 -> 740 ;
741 [label="gini = 0.0\nsamples = 1\nvalue = [1, 0]"] ;
740 -> 741 ;
742 [label="gini = 0.0\nsamples = 3\nvalue = [0, 3]"] ;
740 -> 742 ;
743 [label="gini = 0.0\nsamples = 3\nvalue = [3, 0]"] ;
739 -> 743 ;
744 [label="gini = 0.0\nsamples = 5\nvalue = [0, 5]"] ;
738 -> 744 ;
745 [label="gini = 0.0\nsamples = 2\nvalue = [2, 0]"] ;
737 -> 745 ;
746 [label="gini = 0.0\nsamples = 6\nvalue = [6, 0]"] ;
736 -> 746 ;
747 [label="X[12] <= 19.5\ngini = 0.337\nsamples = 14\nvalue = [3, 11]"] ;
735 -> 747 ;
748 [label="gini = 0.0\nsamples = 10\nvalue = [0, 10]"] ;
747 -> 748 ;
749 [label="X[10] <= 534.0\ngini = 0.375\nsamples = 4\nvalue = [3, 1]"] ;
747 -> 749 ;
750 [label="gini = 0.0\nsamples = 3\nvalue = [3, 0]"] ;
749 -> 750 ;
751 [label="gini = 0.0\nsamples = 1\nvalue = [0, 1]"] ;
749 -> 751 ;
752 [label="X[0] <= 0.2\ngini = 0.219\nsamples = 24\nvalue = [3, 21]"] ;
644 -> 752 ;
753 [label="X[10] <= 109.5\ngini = 0.095\nsamples = 20\nvalue = [1, 19]"] ;
752 -> 753 ;
754 [label="X[10] <= 57.0\ngini = 0.375\nsamples = 4\nvalue = [1, 3]"] ;
753 -> 754 ;
755 [label="gini = 0.0\nsamples = 3\nvalue = [0, 3]"] ;
754 -> 755 ;
756 [label="gini = 0.0\nsamples = 1\nvalue = [1, 0]"] ;
754 -> 756 ;
757 [label="gini = 0.0\nsamples = 16\nvalue = [0, 16]"] ;
753 -> 757 ;
758 [label="X[12] <= 26.0\ngini = 0.5\nsamples = 4\nvalue = [2, 2]"] ;
752 -> 758 ;
759 [label="gini = 0.0\nsamples = 2\nvalue = [0, 2]"] ;
758 -> 759 ;
760 [label="gini = 0.0\nsamples = 2\nvalue = [2, 0]"] ;
758 -> 760 ;
761 [label="X[2] <= 23.5\ngini = 0.471\nsamples = 1112\nvalue = [422, 690]"] ;
1 -> 761 ;
762 [label="X[0] <= -10.05\ngini = 0.483\nsamples = 930\nvalue = [379, 551]"] ;
761 -> 762 ;
763 [label="X[1] <= -2.75\ngini = 0.495\nsamples = 146\nvalue = [80, 66]"] ;
762 -> 763 ;
764 [label="gini = 0.0\nsamples = 5\nvalue = [0, 5]"] ;
763 -> 764 ;
765 [label="X[11] <= 9.5\ngini = 0.491\nsamples = 141\nvalue = [80, 61]"] ;
763 -> 765 ;
766 [label="X[10] <= 100.0\ngini = 0.5\nsamples = 86\nvalue = [42, 44]"] ;
765 -> 766 ;
767 [label="X[0] <= -17.9\ngini = 0.355\nsamples = 13\nvalue = [10, 3]"] ;
766 -> 767 ;
768 [label="gini = 0.0\nsamples = 1\nvalue = [0, 1]"] ;
767 -> 768 ;
769 [label="X[12] <= 2.0\ngini = 0.278\nsamples = 12\nvalue = [10, 2]"] ;
767 -> 769 ;
770 [label="gini = 0.0\nsamples = 1\nvalue = [0, 1]"] ;
769 -> 770 ;
771 [label="X[11] <= 4.5\ngini = 0.165\nsamples = 11\nvalue = [10, 1]"] ;
769 -> 771 ;
772 [label="X[1] <= 13.75\ngini = 0.444\nsamples = 3\nvalue = [2, 1]"] ;
771 -> 772 ;
773 [label="gini = 0.0\nsamples = 2\nvalue = [2, 0]"] ;
772 -> 773 ;
774 [label="gini = 0.0\nsamples = 1\nvalue = [0, 1]"] ;
772 -> 774 ;
775 [label="gini = 0.0\nsamples = 8\nvalue = [8, 0]"] ;
771 -> 775 ;
776 [label="X[12] <= 18.5\ngini = 0.492\nsamples = 73\nvalue = [32, 41]"] ;
766 -> 776 ;
777 [label="X[10] <= 200.5\ngini = 0.46\nsamples = 53\nvalue = [19, 34]"] ;
776 -> 777 ;
778 [label="X[1] <= 1.15\ngini = 0.142\nsamples = 13\nvalue = [1, 12]"] ;
777 -> 778 ;
779 [label="X[0] <= -12.8\ngini = 0.5\nsamples = 2\nvalue = [1, 1]"] ;
778 -> 779 ;
780 [label="gini = 0.0\nsamples = 1\nvalue = [0, 1]"] ;
779 -> 780 ;
781 [label="gini = 0.0\nsamples = 1\nvalue = [1, 0]"] ;
779 -> 781 ;
782 [label="gini = 0.0\nsamples = 11\nvalue = [0, 11]"] ;
778 -> 782 ;
783 [label="X[12] <= 11.0\ngini = 0.495\nsamples = 40\nvalue = [18, 22]"] ;
777 -> 783 ;
784 [label="X[12] <= 8.5\ngini = 0.498\nsamples = 30\nvalue = [16, 14]"] ;
783 -> 784 ;
785 [label="X[12] <= 7.5\ngini = 0.497\nsamples = 26\nvalue = [12, 14]"] ;
784 -> 785 ;
786 [label="X[10] <= 660.5\ngini = 0.499\nsamples = 23\nvalue = [12, 11]"] ;
785 -> 786 ;
787 [label="X[10] <= 547.0\ngini = 0.495\nsamples = 20\nvalue = [9, 11]"] ;
786 -> 787 ;
788 [label="X[1] <= 13.6\ngini = 0.49\nsamples = 14\nvalue = [8, 6]"] ;
787 -> 788 ;
789 [label="X[11] <= 1.5\ngini = 0.444\nsamples = 12\nvalue = [8, 4]"] ;
788 -> 789 ;
790 [label="gini = 0.0\nsamples = 2\nvalue = [0, 2]"] ;
789 -> 790 ;
791 [label="X[6] <= 12.5\ngini = 0.32\nsamples = 10\nvalue = [8, 2]"] ;
789 -> 791 ;
792 [label="gini = 0.0\nsamples = 1\nvalue = [0, 1]"] ;
791 -> 792 ;
793 [label="X[4] <= 1.5\ngini = 0.198\nsamples = 9\nvalue = [8, 1]"] ;
791 -> 793 ;
794 [label="gini = 0.0\nsamples = 1\nvalue = [0, 1]"] ;
793 -> 794 ;
795 [label="gini = 0.0\nsamples = 8\nvalue = [8, 0]"] ;
793 -> 795 ;
796 [label="gini = 0.0\nsamples = 2\nvalue = [0, 2]"] ;
788 -> 796 ;
797 [label="X[6] <= 12.5\ngini = 0.278\nsamples = 6\nvalue = [1, 5]"] ;
787 -> 797 ;
798 [label="X[10] <= 630.0\ngini = 0.5\nsamples = 2\nvalue = [1, 1]"] ;
797 -> 798 ;
799 [label="gini = 0.0\nsamples = 1\nvalue = [1, 0]"] ;
798 -> 799 ;
800 [label="gini = 0.0\nsamples = 1\nvalue = [0, 1]"] ;
798 -> 800 ;
801 [label="gini = 0.0\nsamples = 4\nvalue = [0, 4]"] ;
797 -> 801 ;
802 [label="gini = 0.0\nsamples = 3\nvalue = [3, 0]"] ;
786 -> 802 ;
803 [label="gini = 0.0\nsamples = 3\nvalue = [0, 3]"] ;
785 -> 803 ;
804 [label="gini = 0.0\nsamples = 4\nvalue = [4, 0]"] ;
784 -> 804 ;
805 [label="X[6] <= 11.5\ngini = 0.32\nsamples = 10\nvalue = [2, 8]"] ;
783 -> 805 ;
806 [label="gini = 0.0\nsamples = 1\nvalue = [1, 0]"] ;
805 -> 806 ;
807 [label="X[1] <= 14.25\ngini = 0.198\nsamples = 9\nvalue = [1, 8]"] ;
805 -> 807 ;
808 [label="gini = 0.0\nsamples = 7\nvalue = [0, 7]"] ;
807 -> 808 ;
809 [label="X[0] <= -11.35\ngini = 0.5\nsamples = 2\nvalue = [1, 1]"] ;
807 -> 809 ;
810 [label="gini = 0.0\nsamples = 1\nvalue = [1, 0]"] ;
809 -> 810 ;
811 [label="gini = 0.0\nsamples = 1\nvalue = [0, 1]"] ;
809 -> 811 ;
812 [label="X[4] <= 3.5\ngini = 0.455\nsamples = 20\nvalue = [13, 7]"] ;
776 -> 812 ;
813 [label="X[0] <= -17.05\ngini = 0.18\nsamples = 10\nvalue = [9, 1]"] ;
812 -> 813 ;
814 [label="X[6] <= 17.5\ngini = 0.5\nsamples = 2\nvalue = [1, 1]"] ;
813 -> 814 ;
815 [label="gini = 0.0\nsamples = 1\nvalue = [0, 1]"] ;
814 -> 815 ;
816 [label="gini = 0.0\nsamples = 1\nvalue = [1, 0]"] ;
814 -> 816 ;
817 [label="gini = 0.0\nsamples = 8\nvalue = [8, 0]"] ;
813 -> 817 ;
818 [label="X[1] <= 4.2\ngini = 0.48\nsamples = 10\nvalue = [4, 6]"] ;
812 -> 818 ;
819 [label="X[6] <= 11.5\ngini = 0.444\nsamples = 6\nvalue = [4, 2]"] ;
818 -> 819 ;
820 [label="gini = 0.0\nsamples = 1\nvalue = [0, 1]"] ;
819 -> 820 ;
821 [label="X[5] <= 0.5\ngini = 0.32\nsamples = 5\nvalue = [4, 1]"] ;
819 -> 821 ;
822 [label="gini = 0.0\nsamples = 3\nvalue = [3, 0]"] ;
821 -> 822 ;
823 [label="X[0] <= -15.35\ngini = 0.5\nsamples = 2\nvalue = [1, 1]"] ;
821 -> 823 ;
824 [label="gini = 0.0\nsamples = 1\nvalue = [0, 1]"] ;
823 -> 824 ;
825 [label="gini = 0.0\nsamples = 1\nvalue = [1, 0]"] ;
823 -> 825 ;
826 [label="gini = 0.0\nsamples = 4\nvalue = [0, 4]"] ;
818 -> 826 ;
827 [label="X[11] <= 11.5\ngini = 0.427\nsamples = 55\nvalue = [38, 17]"] ;
765 -> 827 ;
828 [label="X[10] <= 67.5\ngini = 0.298\nsamples = 33\nvalue = [27, 6]"] ;
827 -> 828 ;
829 [label="X[1] <= 7.85\ngini = 0.49\nsamples = 7\nvalue = [3, 4]"] ;
828 -> 829 ;
830 [label="X[0] <= -14.3\ngini = 0.375\nsamples = 4\nvalue = [3, 1]"] ;
829 -> 830 ;
831 [label="gini = 0.0\nsamples = 1\nvalue = [0, 1]"] ;
830 -> 831 ;
832 [label="gini = 0.0\nsamples = 3\nvalue = [3, 0]"] ;
830 -> 832 ;
833 [label="gini = 0.0\nsamples = 3\nvalue = [0, 3]"] ;
829 -> 833 ;
834 [label="X[1] <= -1.65\ngini = 0.142\nsamples = 26\nvalue = [24, 2]"] ;
828 -> 834 ;
835 [label="gini = 0.0\nsamples = 1\nvalue = [0, 1]"] ;
834 -> 835 ;
836 [label="X[0] <= -22.6\ngini = 0.077\nsamples = 25\nvalue = [24, 1]"] ;
834 -> 836 ;
837 [label="X[5] <= 0.5\ngini = 0.5\nsamples = 2\nvalue = [1, 1]"] ;
836 -> 837 ;
838 [label="gini = 0.0\nsamples = 1\nvalue = [1, 0]"] ;
837 -> 838 ;
839 [label="gini = 0.0\nsamples = 1\nvalue = [0, 1]"] ;
837 -> 839 ;
840 [label="gini = 0.0\nsamples = 23\nvalue = [23, 0]"] ;
836 -> 840 ;
841 [label="X[1] <= 0.85\ngini = 0.5\nsamples = 22\nvalue = [11, 11]"] ;
827 -> 841 ;
842 [label="X[11] <= 13.0\ngini = 0.245\nsamples = 7\nvalue = [6, 1]"] ;
841 -> 842 ;
843 [label="X[12] <= 5.0\ngini = 0.5\nsamples = 2\nvalue = [1, 1]"] ;
842 -> 843 ;
844 [label="gini = 0.0\nsamples = 1\nvalue = [1, 0]"] ;
843 -> 844 ;
845 [label="gini = 0.0\nsamples = 1\nvalue = [0, 1]"] ;
843 -> 845 ;
846 [label="gini = 0.0\nsamples = 5\nvalue = [5, 0]"] ;
842 -> 846 ;
847 [label="X[10] <= 406.0\ngini = 0.444\nsamples = 15\nvalue = [5, 10]"] ;
841 -> 847 ;
848 [label="X[0] <= -13.6\ngini = 0.496\nsamples = 11\nvalue = [5, 6]"] ;
847 -> 848 ;
849 [label="X[0] <= -16.05\ngini = 0.408\nsamples = 7\nvalue = [2, 5]"] ;
848 -> 849 ;
850 [label="gini = 0.0\nsamples = 1\nvalue = [1, 0]"] ;
849 -> 850 ;
851 [label="X[11] <= 14.5\ngini = 0.278\nsamples = 6\nvalue = [1, 5]"] ;
849 -> 851 ;
852 [label="gini = 0.0\nsamples = 4\nvalue = [0, 4]"] ;
851 -> 852 ;
853 [label="X[6] <= 14.5\ngini = 0.5\nsamples = 2\nvalue = [1, 1]"] ;
851 -> 853 ;
854 [label="gini = 0.0\nsamples = 1\nvalue = [1, 0]"] ;
853 -> 854 ;
855 [label="gini = 0.0\nsamples = 1\nvalue = [0, 1]"] ;
853 -> 855 ;
856 [label="X[10] <= 60.5\ngini = 0.375\nsamples = 4\nvalue = [3, 1]"] ;
848 -> 856 ;
857 [label="gini = 0.0\nsamples = 1\nvalue = [0, 1]"] ;
856 -> 857 ;
858 [label="gini = 0.0\nsamples = 3\nvalue = [3, 0]"] ;
856 -> 858 ;
859 [label="gini = 0.0\nsamples = 4\nvalue = [0, 4]"] ;
847 -> 859 ;
860 [label="X[2] <= 22.5\ngini = 0.472\nsamples = 784\nvalue = [299, 485]"] ;
762 -> 860 ;
861 [label="X[0] <= 16.5\ngini = 0.463\nsamples = 736\nvalue = [268, 468]"] ;
860 -> 861 ;
862 [label="X[11] <= 10.5\ngini = 0.456\nsamples = 695\nvalue = [244, 451]"] ;
861 -> 862 ;
863 [label="X[6] <= 19.5\ngini = 0.425\nsamples = 441\nvalue = [135, 306]"] ;
862 -> 863 ;
864 [label="X[1] <= 0.85\ngini = 0.433\nsamples = 426\nvalue = [135, 291]"] ;
863 -> 864 ;
865 [label="X[10] <= 446.5\ngini = 0.292\nsamples = 62\nvalue = [11, 51]"] ;
864 -> 865 ;
866 [label="X[1] <= -0.15\ngini = 0.172\nsamples = 42\nvalue = [4, 38]"] ;
865 -> 866 ;
867 [label="gini = 0.0\nsamples = 19\nvalue = [0, 19]"] ;
866 -> 867 ;
868 [label="X[10] <= 233.5\ngini = 0.287\nsamples = 23\nvalue = [4, 19]"] ;
866 -> 868 ;
869 [label="X[10] <= 103.0\ngini = 0.426\nsamples = 13\nvalue = [4, 9]"] ;
868 -> 869 ;
870 [label="gini = 0.0\nsamples = 6\nvalue = [0, 6]"] ;
869 -> 870 ;
871 [label="X[0] <= 2.2\ngini = 0.49\nsamples = 7\nvalue = [4, 3]"] ;
869 -> 871 ;
872 [label="gini = 0.0\nsamples = 3\nvalue = [0, 3]"] ;
871 -> 872 ;
873 [label="gini = 0.0\nsamples = 4\nvalue = [4, 0]"] ;
871 -> 873 ;
874 [label="gini = 0.0\nsamples = 10\nvalue = [0, 10]"] ;
868 -> 874 ;
875 [label="X[10] <= 473.0\ngini = 0.455\nsamples = 20\nvalue = [7, 13]"] ;
865 -> 875 ;
876 [label="gini = 0.0\nsamples = 2\nvalue = [2, 0]"] ;
875 -> 876 ;
877 [label="X[10] <= 661.0\ngini = 0.401\nsamples = 18\nvalue = [5, 13]"] ;
875 -> 877 ;
878 [label="X[0] <= 15.45\ngini = 0.36\nsamples = 17\nvalue = [4, 13]"] ;
877 -> 878 ;
879 [label="X[10] <= 520.5\ngini = 0.305\nsamples = 16\nvalue = [3, 13]"] ;
878 -> 879 ;
880 [label="X[0] <= 14.75\ngini = 0.5\nsamples = 4\nvalue = [2, 2]"] ;
879 -> 880 ;
881 [label="gini = 0.0\nsamples = 2\nvalue = [2, 0]"] ;
880 -> 881 ;
882 [label="gini = 0.0\nsamples = 2\nvalue = [0, 2]"] ;
880 -> 882 ;
883 [label="X[11] <= 1.5\ngini = 0.153\nsamples = 12\nvalue = [1, 11]"] ;
879 -> 883 ;
884 [label="X[0] <= 12.1\ngini = 0.444\nsamples = 3\nvalue = [1, 2]"] ;
883 -> 884 ;
885 [label="gini = 0.0\nsamples = 1\nvalue = [1, 0]"] ;
884 -> 885 ;
886 [label="gini = 0.0\nsamples = 2\nvalue = [0, 2]"] ;
884 -> 886 ;
887 [label="gini = 0.0\nsamples = 9\nvalue = [0, 9]"] ;
883 -> 887 ;
888 [label="gini = 0.0\nsamples = 1\nvalue = [1, 0]"] ;
878 -> 888 ;
889 [label="gini = 0.0\nsamples = 1\nvalue = [1, 0]"] ;
877 -> 889 ;
890 [label="X[0] <= 5.85\ngini = 0.449\nsamples = 364\nvalue = [124, 240]"] ;
864 -> 890 ;
891 [label="X[3] <= 1.5\ngini = 0.403\nsamples = 225\nvalue = [63, 162]"] ;
890 -> 891 ;
892 [label="X[10] <= 690.5\ngini = 0.357\nsamples = 155\nvalue = [36, 119]"] ;
891 -> 892 ;
893 [label="X[10] <= 613.0\ngini = 0.334\nsamples = 146\nvalue = [31, 115]"] ;
892 -> 893 ;
894 [label="X[10] <= 607.0\ngini = 0.359\nsamples = 132\nvalue = [31, 101]"] ;
893 -> 894 ;
895 [label="X[11] <= 9.5\ngini = 0.347\nsamples = 130\nvalue = [29, 101]"] ;
894 -> 895 ;
896 [label="X[0] <= 1.45\ngini = 0.39\nsamples = 98\nvalue = [26, 72]"] ;
895 -> 896 ;
897 [label="X[5] <= 0.5\ngini = 0.432\nsamples = 73\nvalue = [23, 50]"] ;
896 -> 897 ;
898 [label="X[1] <= 14.2\ngini = 0.468\nsamples = 59\nvalue = [22, 37]"] ;
897 -> 898 ;
899 [label="X[6] <= 11.5\ngini = 0.418\nsamples = 47\nvalue = [14, 33]"] ;
898 -> 899 ;
900 [label="X[10] <= 475.5\ngini = 0.47\nsamples = 37\nvalue = [14, 23]"] ;
899 -> 900 ;
901 [label="X[12] <= 16.0\ngini = 0.43\nsamples = 32\nvalue = [10, 22]"] ;
900 -> 901 ;
902 [label="X[0] <= 0.6\ngini = 0.142\nsamples = 13\nvalue = [1, 12]"] ;
901 -> 902 ;
903 [label="gini = 0.0\nsamples = 12\nvalue = [0, 12]"] ;
902 -> 903 ;
904 [label="gini = 0.0\nsamples = 1\nvalue = [1, 0]"] ;
902 -> 904 ;
905 [label="X[10] <= 50.0\ngini = 0.499\nsamples = 19\nvalue = [9, 10]"] ;
901 -> 905 ;
906 [label="gini = 0.0\nsamples = 4\nvalue = [0, 4]"] ;
905 -> 906 ;
907 [label="X[10] <= 385.0\ngini = 0.48\nsamples = 15\nvalue = [9, 6]"] ;
905 -> 907 ;
908 [label="X[1] <= 9.85\ngini = 0.375\nsamples = 12\nvalue = [9, 3]"] ;
907 -> 908 ;
909 [label="X[11] <= 5.5\ngini = 0.219\nsamples = 8\nvalue = [7, 1]"] ;
908 -> 909 ;
910 [label="gini = 0.0\nsamples = 1\nvalue = [0, 1]"] ;
909 -> 910 ;
911 [label="gini = 0.0\nsamples = 7\nvalue = [7, 0]"] ;
909 -> 911 ;
912 [label="X[12] <= 25.0\ngini = 0.5\nsamples = 4\nvalue = [2, 2]"] ;
908 -> 912 ;
913 [label="X[0] <= -0.6\ngini = 0.444\nsamples = 3\nvalue = [1, 2]"] ;
912 -> 913 ;
914 [label="gini = 0.0\nsamples = 2\nvalue = [0, 2]"] ;
913 -> 914 ;
915 [label="gini = 0.0\nsamples = 1\nvalue = [1, 0]"] ;
913 -> 915 ;
916 [label="gini = 0.0\nsamples = 1\nvalue = [1, 0]"] ;
912 -> 916 ;
917 [label="gini = 0.0\nsamples = 3\nvalue = [0, 3]"] ;
907 -> 917 ;
918 [label="X[12] <= 18.5\ngini = 0.32\nsamples = 5\nvalue = [4, 1]"] ;
900 -> 918 ;
919 [label="gini = 0.0\nsamples = 4\nvalue = [4, 0]"] ;
918 -> 919 ;
920 [label="gini = 0.0\nsamples = 1\nvalue = [0, 1]"] ;
918 -> 920 ;
921 [label="gini = 0.0\nsamples = 10\nvalue = [0, 10]"] ;
899 -> 921 ;
922 [label="X[11] <= 2.5\ngini = 0.444\nsamples = 12\nvalue = [8, 4]"] ;
898 -> 922 ;
923 [label="gini = 0.0\nsamples = 2\nvalue = [0, 2]"] ;
922 -> 923 ;
924 [label="X[12] <= 27.5\ngini = 0.32\nsamples = 10\nvalue = [8, 2]"] ;
922 -> 924 ;
925 [label="X[1] <= 17.6\ngini = 0.198\nsamples = 9\nvalue = [8, 1]"] ;
924 -> 925 ;
926 [label="gini = 0.0\nsamples = 6\nvalue = [6, 0]"] ;
925 -> 926 ;
927 [label="X[10] <= 147.0\ngini = 0.444\nsamples = 3\nvalue = [2, 1]"] ;
925 -> 927 ;
928 [label="gini = 0.0\nsamples = 2\nvalue = [2, 0]"] ;
927 -> 928 ;
929 [label="gini = 0.0\nsamples = 1\nvalue = [0, 1]"] ;
927 -> 929 ;
930 [label="gini = 0.0\nsamples = 1\nvalue = [0, 1]"] ;
924 -> 930 ;
931 [label="X[4] <= 1.5\ngini = 0.133\nsamples = 14\nvalue = [1, 13]"] ;
897 -> 931 ;
932 [label="X[1] <= 5.7\ngini = 0.375\nsamples = 4\nvalue = [1, 3]"] ;
931 -> 932 ;
933 [label="gini = 0.0\nsamples = 1\nvalue = [1, 0]"] ;
932 -> 933 ;
934 [label="gini = 0.0\nsamples = 3\nvalue = [0, 3]"] ;
932 -> 934 ;
935 [label="gini = 0.0\nsamples = 10\nvalue = [0, 10]"] ;
931 -> 935 ;
936 [label="X[5] <= 0.5\ngini = 0.211\nsamples = 25\nvalue = [3, 22]"] ;
896 -> 936 ;
937 [label="X[10] <= 455.0\ngini = 0.1\nsamples = 19\nvalue = [1, 18]"] ;
936 -> 937 ;
938 [label="gini = 0.0\nsamples = 17\nvalue = [0, 17]"] ;
937 -> 938 ;
939 [label="X[1] <= 6.55\ngini = 0.5\nsamples = 2\nvalue = [1, 1]"] ;
937 -> 939 ;
940 [label="gini = 0.0\nsamples = 1\nvalue = [0, 1]"] ;
939 -> 940 ;
941 [label="gini = 0.0\nsamples = 1\nvalue = [1, 0]"] ;
939 -> 941 ;
942 [label="X[4] <= 2.5\ngini = 0.444\nsamples = 6\nvalue = [2, 4]"] ;
936 -> 942 ;
943 [label="gini = 0.0\nsamples = 2\nvalue = [0, 2]"] ;
942 -> 943 ;
944 [label="X[4] <= 3.5\ngini = 0.5\nsamples = 4\nvalue = [2, 2]"] ;
942 -> 944 ;
945 [label="gini = 0.0\nsamples = 2\nvalue = [2, 0]"] ;
944 -> 945 ;
946 [label="gini = 0.0\nsamples = 2\nvalue = [0, 2]"] ;
944 -> 946 ;
947 [label="X[12] <= 24.5\ngini = 0.17\nsamples = 32\nvalue = [3, 29]"] ;
895 -> 947 ;
948 [label="gini = 0.0\nsamples = 22\nvalue = [0, 22]"] ;
947 -> 948 ;
949 [label="X[12] <= 27.5\ngini = 0.42\nsamples = 10\nvalue = [3, 7]"] ;
947 -> 949 ;
950 [label="X[1] <= 7.95\ngini = 0.375\nsamples = 4\nvalue = [3, 1]"] ;
949 -> 950 ;
951 [label="gini = 0.0\nsamples = 3\nvalue = [3, 0]"] ;
950 -> 951 ;
952 [label="gini = 0.0\nsamples = 1\nvalue = [0, 1]"] ;
950 -> 952 ;
953 [label="gini = 0.0\nsamples = 6\nvalue = [0, 6]"] ;
949 -> 953 ;
954 [label="gini = 0.0\nsamples = 2\nvalue = [2, 0]"] ;
894 -> 954 ;
955 [label="gini = 0.0\nsamples = 14\nvalue = [0, 14]"] ;
893 -> 955 ;
956 [label="X[0] <= 0.75\ngini = 0.494\nsamples = 9\nvalue = [5, 4]"] ;
892 -> 956 ;
957 [label="X[5] <= 0.5\ngini = 0.444\nsamples = 6\nvalue = [2, 4]"] ;
956 -> 957 ;
958 [label="gini = 0.0\nsamples = 4\nvalue = [0, 4]"] ;
957 -> 958 ;
959 [label="gini = 0.0\nsamples = 2\nvalue = [2, 0]"] ;
957 -> 959 ;
960 [label="gini = 0.0\nsamples = 3\nvalue = [3, 0]"] ;
956 -> 960 ;
961 [label="X[10] <= 615.0\ngini = 0.474\nsamples = 70\nvalue = [27, 43]"] ;
891 -> 961 ;
962 [label="X[10] <= 419.0\ngini = 0.49\nsamples = 63\nvalue = [27, 36]"] ;
961 -> 962 ;
963 [label="X[11] <= 0.5\ngini = 0.453\nsamples = 52\nvalue = [18, 34]"] ;
962 -> 963 ;
964 [label="gini = 0.0\nsamples = 2\nvalue = [2, 0]"] ;
963 -> 964 ;
965 [label="X[4] <= 5.0\ngini = 0.435\nsamples = 50\nvalue = [16, 34]"] ;
963 -> 965 ;
966 [label="X[12] <= 2.0\ngini = 0.425\nsamples = 49\nvalue = [15, 34]"] ;
965 -> 966 ;
967 [label="gini = 0.0\nsamples = 1\nvalue = [1, 0]"] ;
966 -> 967 ;
968 [label="X[1] <= 1.6\ngini = 0.413\nsamples = 48\nvalue = [14, 34]"] ;
966 -> 968 ;
969 [label="X[0] <= 1.75\ngini = 0.5\nsamples = 10\nvalue = [5, 5]"] ;
968 -> 969 ;
970 [label="gini = 0.0\nsamples = 3\nvalue = [3, 0]"] ;
969 -> 970 ;
971 [label="X[12] <= 16.0\ngini = 0.408\nsamples = 7\nvalue = [2, 5]"] ;
969 -> 971 ;
972 [label="X[0] <= 2.05\ngini = 0.444\nsamples = 3\nvalue = [2, 1]"] ;
971 -> 972 ;
973 [label="gini = 0.0\nsamples = 1\nvalue = [0, 1]"] ;
972 -> 973 ;
974 [label="gini = 0.0\nsamples = 2\nvalue = [2, 0]"] ;
972 -> 974 ;
975 [label="gini = 0.0\nsamples = 4\nvalue = [0, 4]"] ;
971 -> 975 ;
976 [label="X[2] <= 6.5\ngini = 0.361\nsamples = 38\nvalue = [9, 29]"] ;
968 -> 976 ;
977 [label="X[11] <= 8.5\ngini = 0.48\nsamples = 5\nvalue = [3, 2]"] ;
976 -> 977 ;
978 [label="gini = 0.0\nsamples = 2\nvalue = [0, 2]"] ;
977 -> 978 ;
979 [label="gini = 0.0\nsamples = 3\nvalue = [3, 0]"] ;
977 -> 979 ;
980 [label="X[1] <= 3.35\ngini = 0.298\nsamples = 33\nvalue = [6, 27]"] ;
976 -> 980 ;
981 [label="X[12] <= 9.5\ngini = 0.204\nsamples = 26\nvalue = [3, 23]"] ;
980 -> 981 ;
982 [label="X[0] <= 0.75\ngini = 0.337\nsamples = 14\nvalue = [3, 11]"] ;
981 -> 982 ;
983 [label="X[0] <= -2.0\ngini = 0.444\nsamples = 9\nvalue = [3, 6]"] ;
982 -> 983 ;
984 [label="gini = 0.0\nsamples = 2\nvalue = [0, 2]"] ;
983 -> 984 ;
985 [label="X[1] <= 2.35\ngini = 0.49\nsamples = 7\nvalue = [3, 4]"] ;
983 -> 985 ;
986 [label="gini = 0.0\nsamples = 1\nvalue = [1, 0]"] ;
985 -> 986 ;
987 [label="X[11] <= 9.0\ngini = 0.444\nsamples = 6\nvalue = [2, 4]"] ;
985 -> 987 ;
988 [label="X[10] <= 213.0\ngini = 0.444\nsamples = 3\nvalue = [2, 1]"] ;
987 -> 988 ;
989 [label="gini = 0.0\nsamples = 2\nvalue = [2, 0]"] ;
988 -> 989 ;
990 [label="gini = 0.0\nsamples = 1\nvalue = [0, 1]"] ;
988 -> 990 ;
991 [label="gini = 0.0\nsamples = 3\nvalue = [0, 3]"] ;
987 -> 991 ;
992 [label="gini = 0.0\nsamples = 5\nvalue = [0, 5]"] ;
982 -> 992 ;
993 [label="gini = 0.0\nsamples = 12\nvalue = [0, 12]"] ;
981 -> 993 ;
994 [label="X[1] <= 3.55\ngini = 0.49\nsamples = 7\nvalue = [3, 4]"] ;
980 -> 994 ;
995 [label="gini = 0.0\nsamples = 2\nvalue = [2, 0]"] ;
994 -> 995 ;
996 [label="X[12] <= 22.0\ngini = 0.32\nsamples = 5\nvalue = [1, 4]"] ;
994 -> 996 ;
997 [label="gini = 0.0\nsamples = 4\nvalue = [0, 4]"] ;
996 -> 997 ;
998 [label="gini = 0.0\nsamples = 1\nvalue = [1, 0]"] ;
996 -> 998 ;
999 [label="gini = 0.0\nsamples = 1\nvalue = [1, 0]"] ;
965 -> 999 ;
1000 [label="X[11] <= 1.5\ngini = 0.298\nsamples = 11\nvalue = [9, 2]"] ;
962 -> 1000 ;
1001 [label="gini = 0.0\nsamples = 1\nvalue = [0, 1]"] ;
1000 -> 1001 ;
1002 [label="X[1] <= 1.05\ngini = 0.18\nsamples = 10\nvalue = [9, 1]"] ;
1000 -> 1002 ;
1003 [label="gini = 0.0\nsamples = 1\nvalue = [0, 1]"] ;
1002 -> 1003 ;
1004 [label="gini = 0.0\nsamples = 9\nvalue = [9, 0]"] ;
1002 -> 1004 ;
1005 [label="gini = 0.0\nsamples = 7\nvalue = [0, 7]"] ;
961 -> 1005 ;
1006 [label="X[1] <= 15.65\ngini = 0.493\nsamples = 139\nvalue = [61, 78]"] ;
890 -> 1006 ;
1007 [label="X[5] <= 0.5\ngini = 0.497\nsamples = 132\nvalue = [61, 71]"] ;
1006 -> 1007 ;
1008 [label="X[0] <= 14.95\ngini = 0.483\nsamples = 103\nvalue = [42, 61]"] ;
1007 -> 1008 ;
1009 [label="X[0] <= 14.35\ngini = 0.498\nsamples = 86\nvalue = [40, 46]"] ;
1008 -> 1009 ;
1010 [label="X[12] <= 12.5\ngini = 0.488\nsamples = 76\nvalue = [32, 44]"] ;
1009 -> 1010 ;
1011 [label="X[2] <= 16.5\ngini = 0.498\nsamples = 36\nvalue = [19, 17]"] ;
1010 -> 1011 ;
1012 [label="gini = 0.0\nsamples = 3\nvalue = [0, 3]"] ;
1011 -> 1012 ;
1013 [label="X[11] <= 8.5\ngini = 0.489\nsamples = 33\nvalue = [19, 14]"] ;
1011 -> 1013 ;
1014 [label="X[12] <= 4.5\ngini = 0.434\nsamples = 22\nvalue = [15, 7]"] ;
1013 -> 1014 ;
1015 [label="X[10] <= 293.0\ngini = 0.496\nsamples = 11\nvalue = [5, 6]"] ;
1014 -> 1015 ;
1016 [label="X[10] <= 132.5\ngini = 0.32\nsamples = 5\nvalue = [4, 1]"] ;
1015 -> 1016 ;
1017 [label="gini = 0.0\nsamples = 1\nvalue = [0, 1]"] ;
1016 -> 1017 ;
1018 [label="gini = 0.0\nsamples = 4\nvalue = [4, 0]"] ;
1016 -> 1018 ;
1019 [label="X[10] <= 592.0\ngini = 0.278\nsamples = 6\nvalue = [1, 5]"] ;
1015 -> 1019 ;
1020 [label="gini = 0.0\nsamples = 5\nvalue = [0, 5]"] ;
1019 -> 1020 ;
1021 [label="gini = 0.0\nsamples = 1\nvalue = [1, 0]"] ;
1019 -> 1021 ;
1022 [label="X[6] <= 14.5\ngini = 0.165\nsamples = 11\nvalue = [10, 1]"] ;
1014 -> 1022 ;
1023 [label="gini = 0.0\nsamples = 9\nvalue = [9, 0]"] ;
1022 -> 1023 ;
1024 [label="X[9] <= 0.5\ngini = 0.5\nsamples = 2\nvalue = [1, 1]"] ;
1022 -> 1024 ;
1025 [label="gini = 0.0\nsamples = 1\nvalue = [1, 0]"] ;
1024 -> 1025 ;
1026 [label="gini = 0.0\nsamples = 1\nvalue = [0, 1]"] ;
1024 -> 1026 ;
1027 [label="X[1] <= 12.25\ngini = 0.463\nsamples = 11\nvalue = [4, 7]"] ;
1013 -> 1027 ;
1028 [label="X[4] <= 1.5\ngini = 0.49\nsamples = 7\nvalue = [4, 3]"] ;
1027 -> 1028 ;
1029 [label="gini = 0.0\nsamples = 2\nvalue = [0, 2]"] ;
1028 -> 1029 ;
1030 [label="X[0] <= 13.25\ngini = 0.32\nsamples = 5\nvalue = [4, 1]"] ;
1028 -> 1030 ;
1031 [label="gini = 0.0\nsamples = 4\nvalue = [4, 0]"] ;
1030 -> 1031 ;
1032 [label="gini = 0.0\nsamples = 1\nvalue = [0, 1]"] ;
1030 -> 1032 ;
1033 [label="gini = 0.0\nsamples = 4\nvalue = [0, 4]"] ;
1027 -> 1033 ;
1034 [label="X[1] <= 3.05\ngini = 0.439\nsamples = 40\nvalue = [13, 27]"] ;
1010 -> 1034 ;
1035 [label="gini = 0.0\nsamples = 9\nvalue = [0, 9]"] ;
1034 -> 1035 ;
1036 [label="X[1] <= 5.35\ngini = 0.487\nsamples = 31\nvalue = [13, 18]"] ;
1034 -> 1036 ;
1037 [label="gini = 0.0\nsamples = 5\nvalue = [5, 0]"] ;
1036 -> 1037 ;
1038 [label="X[10] <= 72.0\ngini = 0.426\nsamples = 26\nvalue = [8, 18]"] ;
1036 -> 1038 ;
1039 [label="gini = 0.0\nsamples = 3\nvalue = [3, 0]"] ;
1038 -> 1039 ;
1040 [label="X[12] <= 25.5\ngini = 0.34\nsamples = 23\nvalue = [5, 18]"] ;
1038 -> 1040 ;
1041 [label="X[11] <= 8.5\ngini = 0.459\nsamples = 14\nvalue = [5, 9]"] ;
1040 -> 1041 ;
1042 [label="X[9] <= 0.5\ngini = 0.32\nsamples = 10\nvalue = [2, 8]"] ;
1041 -> 1042 ;
1043 [label="X[6] <= 16.5\ngini = 0.48\nsamples = 5\nvalue = [2, 3]"] ;
1042 -> 1043 ;
1044 [label="gini = 0.0\nsamples = 2\nvalue = [2, 0]"] ;
1043 -> 1044 ;
1045 [label="gini = 0.0\nsamples = 3\nvalue = [0, 3]"] ;
1043 -> 1045 ;
1046 [label="gini = 0.0\nsamples = 5\nvalue = [0, 5]"] ;
1042 -> 1046 ;
1047 [label="X[1] <= 8.2\ngini = 0.375\nsamples = 4\nvalue = [3, 1]"] ;
1041 -> 1047 ;
1048 [label="gini = 0.0\nsamples = 1\nvalue = [0, 1]"] ;
1047 -> 1048 ;
1049 [label="gini = 0.0\nsamples = 3\nvalue = [3, 0]"] ;
1047 -> 1049 ;
1050 [label="gini = 0.0\nsamples = 9\nvalue = [0, 9]"] ;
1040 -> 1050 ;
1051 [label="X[12] <= 17.5\ngini = 0.32\nsamples = 10\nvalue = [8, 2]"] ;
1009 -> 1051 ;
1052 [label="X[0] <= 14.5\ngini = 0.5\nsamples = 4\nvalue = [2, 2]"] ;
1051 -> 1052 ;
1053 [label="gini = 0.0\nsamples = 1\nvalue = [0, 1]"] ;
1052 -> 1053 ;
1054 [label="X[0] <= 14.7\ngini = 0.444\nsamples = 3\nvalue = [2, 1]"] ;
1052 -> 1054 ;
1055 [label="gini = 0.0\nsamples = 2\nvalue = [2, 0]"] ;
1054 -> 1055 ;
1056 [label="gini = 0.0\nsamples = 1\nvalue = [0, 1]"] ;
1054 -> 1056 ;
1057 [label="gini = 0.0\nsamples = 6\nvalue = [6, 0]"] ;
1051 -> 1057 ;
1058 [label="X[1] <= 12.0\ngini = 0.208\nsamples = 17\nvalue = [2, 15]"] ;
1008 -> 1058 ;
1059 [label="X[12] <= 6.5\ngini = 0.117\nsamples = 16\nvalue = [1, 15]"] ;
1058 -> 1059 ;
1060 [label="X[10] <= 201.5\ngini = 0.278\nsamples = 6\nvalue = [1, 5]"] ;
1059 -> 1060 ;
1061 [label="X[4] <= 3.0\ngini = 0.5\nsamples = 2\nvalue = [1, 1]"] ;
1060 -> 1061 ;
1062 [label="gini = 0.0\nsamples = 1\nvalue = [1, 0]"] ;
1061 -> 1062 ;
1063 [label="gini = 0.0\nsamples = 1\nvalue = [0, 1]"] ;
1061 -> 1063 ;
1064 [label="gini = 0.0\nsamples = 4\nvalue = [0, 4]"] ;
1060 -> 1064 ;
1065 [label="gini = 0.0\nsamples = 10\nvalue = [0, 10]"] ;
1059 -> 1065 ;
1066 [label="gini = 0.0\nsamples = 1\nvalue = [1, 0]"] ;
1058 -> 1066 ;
1067 [label="X[1] <= 12.4\ngini = 0.452\nsamples = 29\nvalue = [19, 10]"] ;
1007 -> 1067 ;
1068 [label="X[11] <= 1.5\ngini = 0.393\nsamples = 26\nvalue = [19, 7]"] ;
1067 -> 1068 ;
1069 [label="gini = 0.0\nsamples = 2\nvalue = [0, 2]"] ;
1068 -> 1069 ;
1070 [label="X[10] <= 211.5\ngini = 0.33\nsamples = 24\nvalue = [19, 5]"] ;
1068 -> 1070 ;
1071 [label="gini = 0.0\nsamples = 6\nvalue = [6, 0]"] ;
1070 -> 1071 ;
1072 [label="X[10] <= 345.5\ngini = 0.401\nsamples = 18\nvalue = [13, 5]"] ;
1070 -> 1072 ;
1073 [label="X[10] <= 331.5\ngini = 0.49\nsamples = 7\nvalue = [3, 4]"] ;
1072 -> 1073 ;
1074 [label="X[6] <= 12.0\ngini = 0.48\nsamples = 5\nvalue = [3, 2]"] ;
1073 -> 1074 ;
1075 [label="gini = 0.0\nsamples = 2\nvalue = [2, 0]"] ;
1074 -> 1075 ;
1076 [label="X[11] <= 2.5\ngini = 0.444\nsamples = 3\nvalue = [1, 2]"] ;
1074 -> 1076 ;
1077 [label="gini = 0.0\nsamples = 1\nvalue = [1, 0]"] ;
1076 -> 1077 ;
1078 [label="gini = 0.0\nsamples = 2\nvalue = [0, 2]"] ;
1076 -> 1078 ;
1079 [label="gini = 0.0\nsamples = 2\nvalue = [0, 2]"] ;
1073 -> 1079 ;
1080 [label="X[1] <= 1.35\ngini = 0.165\nsamples = 11\nvalue = [10, 1]"] ;
1072 -> 1080 ;
1081 [label="gini = 0.0\nsamples = 1\nvalue = [0, 1]"] ;
1080 -> 1081 ;
1082 [label="gini = 0.0\nsamples = 10\nvalue = [10, 0]"] ;
1080 -> 1082 ;
1083 [label="gini = 0.0\nsamples = 3\nvalue = [0, 3]"] ;
1067 -> 1083 ;
1084 [label="gini = 0.0\nsamples = 7\nvalue = [0, 7]"] ;
1006 -> 1084 ;
1085 [label="gini = 0.0\nsamples = 15\nvalue = [0, 15]"] ;
863 -> 1085 ;
1086 [label="X[6] <= 4.5\ngini = 0.49\nsamples = 254\nvalue = [109, 145]"] ;
862 -> 1086 ;
1087 [label="X[12] <= 1.5\ngini = 0.437\nsamples = 93\nvalue = [30, 63]"] ;
1086 -> 1087 ;
1088 [label="gini = 0.0\nsamples = 2\nvalue = [2, 0]"] ;
1087 -> 1088 ;
1089 [label="X[1] <= 1.95\ngini = 0.426\nsamples = 91\nvalue = [28, 63]"] ;
1087 -> 1089 ;
1090 [label="X[1] <= 1.05\ngini = 0.484\nsamples = 51\nvalue = [21, 30]"] ;
1089 -> 1090 ;
1091 [label="X[0] <= 3.45\ngini = 0.408\nsamples = 28\nvalue = [8, 20]"] ;
1090 -> 1091 ;
1092 [label="X[10] <= 11.0\ngini = 0.384\nsamples = 27\nvalue = [7, 20]"] ;
1091 -> 1092 ;
1093 [label="gini = 0.0\nsamples = 1\nvalue = [1, 0]"] ;
1092 -> 1093 ;
1094 [label="X[2] <= 4.0\ngini = 0.355\nsamples = 26\nvalue = [6, 20]"] ;
1092 -> 1094 ;
1095 [label="gini = 0.0\nsamples = 1\nvalue = [1, 0]"] ;
1094 -> 1095 ;
1096 [label="X[12] <= 8.5\ngini = 0.32\nsamples = 25\nvalue = [5, 20]"] ;
1094 -> 1096 ;
1097 [label="gini = 0.0\nsamples = 10\nvalue = [0, 10]"] ;
1096 -> 1097 ;
1098 [label="X[10] <= 121.0\ngini = 0.444\nsamples = 15\nvalue = [5, 10]"] ;
1096 -> 1098 ;
1099 [label="gini = 0.0\nsamples = 5\nvalue = [0, 5]"] ;
1098 -> 1099 ;
1100 [label="X[10] <= 388.5\ngini = 0.5\nsamples = 10\nvalue = [5, 5]"] ;
1098 -> 1100 ;
1101 [label="X[4] <= 1.5\ngini = 0.375\nsamples = 4\nvalue = [3, 1]"] ;
1100 -> 1101 ;
1102 [label="gini = 0.0\nsamples = 1\nvalue = [0, 1]"] ;
1101 -> 1102 ;
1103 [label="gini = 0.0\nsamples = 3\nvalue = [3, 0]"] ;
1101 -> 1103 ;
1104 [label="X[4] <= 2.5\ngini = 0.444\nsamples = 6\nvalue = [2, 4]"] ;
1100 -> 1104 ;
1105 [label="X[10] <= 459.5\ngini = 0.444\nsamples = 3\nvalue = [2, 1]"] ;
1104 -> 1105 ;
1106 [label="gini = 0.0\nsamples = 1\nvalue = [0, 1]"] ;
1105 -> 1106 ;
1107 [label="gini = 0.0\nsamples = 2\nvalue = [2, 0]"] ;
1105 -> 1107 ;
1108 [label="gini = 0.0\nsamples = 3\nvalue = [0, 3]"] ;
1104 -> 1108 ;
1109 [label="gini = 0.0\nsamples = 1\nvalue = [1, 0]"] ;
1091 -> 1109 ;
1110 [label="X[2] <= 9.0\ngini = 0.491\nsamples = 23\nvalue = [13, 10]"] ;
1090 -> 1110 ;
1111 [label="X[12] <= 4.0\ngini = 0.278\nsamples = 6\nvalue = [1, 5]"] ;
1110 -> 1111 ;
1112 [label="gini = 0.0\nsamples = 1\nvalue = [1, 0]"] ;
1111 -> 1112 ;
1113 [label="gini = 0.0\nsamples = 5\nvalue = [0, 5]"] ;
1111 -> 1113 ;
1114 [label="X[10] <= 109.5\ngini = 0.415\nsamples = 17\nvalue = [12, 5]"] ;
1110 -> 1114 ;
1115 [label="X[10] <= 59.5\ngini = 0.48\nsamples = 5\nvalue = [2, 3]"] ;
1114 -> 1115 ;
1116 [label="X[1] <= 1.15\ngini = 0.444\nsamples = 3\nvalue = [2, 1]"] ;
1115 -> 1116 ;
1117 [label="gini = 0.0\nsamples = 1\nvalue = [0, 1]"] ;
1116 -> 1117 ;
1118 [label="gini = 0.0\nsamples = 2\nvalue = [2, 0]"] ;
1116 -> 1118 ;
1119 [label="gini = 0.0\nsamples = 2\nvalue = [0, 2]"] ;
1115 -> 1119 ;
1120 [label="X[12] <= 12.0\ngini = 0.278\nsamples = 12\nvalue = [10, 2]"] ;
1114 -> 1120 ;
1121 [label="gini = 0.0\nsamples = 6\nvalue = [6, 0]"] ;
1120 -> 1121 ;
1122 [label="X[11] <= 11.5\ngini = 0.444\nsamples = 6\nvalue = [4, 2]"] ;
1120 -> 1122 ;
1123 [label="gini = 0.0\nsamples = 3\nvalue = [3, 0]"] ;
1122 -> 1123 ;
1124 [label="X[0] <= 1.85\ngini = 0.444\nsamples = 3\nvalue = [1, 2]"] ;
1122 -> 1124 ;
1125 [label="gini = 0.0\nsamples = 2\nvalue = [0, 2]"] ;
1124 -> 1125 ;
1126 [label="gini = 0.0\nsamples = 1\nvalue = [1, 0]"] ;
1124 -> 1126 ;
1127 [label="X[10] <= 251.5\ngini = 0.289\nsamples = 40\nvalue = [7, 33]"] ;
1089 -> 1127 ;
1128 [label="gini = 0.0\nsamples = 19\nvalue = [0, 19]"] ;
1127 -> 1128 ;
1129 [label="X[10] <= 289.0\ngini = 0.444\nsamples = 21\nvalue = [7, 14]"] ;
1127 -> 1129 ;
1130 [label="gini = 0.0\nsamples = 2\nvalue = [2, 0]"] ;
1129 -> 1130 ;
1131 [label="X[0] <= 1.95\ngini = 0.388\nsamples = 19\nvalue = [5, 14]"] ;
1129 -> 1131 ;
1132 [label="X[4] <= 2.5\ngini = 0.346\nsamples = 18\nvalue = [4, 14]"] ;
1131 -> 1132 ;
1133 [label="X[12] <= 15.0\ngini = 0.49\nsamples = 7\nvalue = [3, 4]"] ;
1132 -> 1133 ;
1134 [label="gini = 0.0\nsamples = 4\nvalue = [0, 4]"] ;
1133 -> 1134 ;
1135 [label="gini = 0.0\nsamples = 3\nvalue = [3, 0]"] ;
1133 -> 1135 ;
1136 [label="X[10] <= 403.5\ngini = 0.165\nsamples = 11\nvalue = [1, 10]"] ;
1132 -> 1136 ;
1137 [label="X[6] <= 2.5\ngini = 0.5\nsamples = 2\nvalue = [1, 1]"] ;
1136 -> 1137 ;
1138 [label="gini = 0.0\nsamples = 1\nvalue = [0, 1]"] ;
1137 -> 1138 ;
1139 [label="gini = 0.0\nsamples = 1\nvalue = [1, 0]"] ;
1137 -> 1139 ;
1140 [label="gini = 0.0\nsamples = 9\nvalue = [0, 9]"] ;
1136 -> 1140 ;
1141 [label="gini = 0.0\nsamples = 1\nvalue = [1, 0]"] ;
1131 -> 1141 ;
1142 [label="X[11] <= 12.5\ngini = 0.5\nsamples = 161\nvalue = [79, 82]"] ;
1086 -> 1142 ;
1143 [label="X[1] <= 0.05\ngini = 0.487\nsamples = 110\nvalue = [46, 64]"] ;
1142 -> 1143 ;
1144 [label="gini = 0.0\nsamples = 5\nvalue = [0, 5]"] ;
1143 -> 1144 ;
1145 [label="X[1] <= 16.75\ngini = 0.492\nsamples = 105\nvalue = [46, 59]"] ;
1143 -> 1145 ;
1146 [label="X[0] <= 10.9\ngini = 0.498\nsamples = 94\nvalue = [44, 50]"] ;
1145 -> 1146 ;
1147 [label="X[10] <= 51.0\ngini = 0.489\nsamples = 82\nvalue = [35, 47]"] ;
1146 -> 1147 ;
1148 [label="X[8] <= 2.5\ngini = 0.278\nsamples = 6\nvalue = [5, 1]"] ;
1147 -> 1148 ;
1149 [label="X[6] <= 11.5\ngini = 0.5\nsamples = 2\nvalue = [1, 1]"] ;
1148 -> 1149 ;
1150 [label="gini = 0.0\nsamples = 1\nvalue = [0, 1]"] ;
1149 -> 1150 ;
1151 [label="gini = 0.0\nsamples = 1\nvalue = [1, 0]"] ;
1149 -> 1151 ;
1152 [label="gini = 0.0\nsamples = 4\nvalue = [4, 0]"] ;
1148 -> 1152 ;
1153 [label="X[0] <= 9.7\ngini = 0.478\nsamples = 76\nvalue = [30, 46]"] ;
1147 -> 1153 ;
1154 [label="X[0] <= 8.85\ngini = 0.486\nsamples = 72\nvalue = [30, 42]"] ;
1153 -> 1154 ;
1155 [label="X[10] <= 668.0\ngini = 0.472\nsamples = 68\nvalue = [26, 42]"] ;
1154 -> 1155 ;
1156 [label="X[10] <= 434.0\ngini = 0.463\nsamples = 66\nvalue = [24, 42]"] ;
1155 -> 1156 ;
1157 [label="X[10] <= 317.5\ngini = 0.488\nsamples = 52\nvalue = [22, 30]"] ;
1156 -> 1157 ;
1158 [label="X[12] <= 5.0\ngini = 0.454\nsamples = 43\nvalue = [15, 28]"] ;
1157 -> 1158 ;
1159 [label="X[1] <= 4.95\ngini = 0.469\nsamples = 8\nvalue = [5, 3]"] ;
1158 -> 1159 ;
1160 [label="gini = 0.0\nsamples = 3\nvalue = [3, 0]"] ;
1159 -> 1160 ;
1161 [label="X[0] <= -3.2\ngini = 0.48\nsamples = 5\nvalue = [2, 3]"] ;
1159 -> 1161 ;
1162 [label="gini = 0.0\nsamples = 2\nvalue = [0, 2]"] ;
1161 -> 1162 ;
1163 [label="X[11] <= 11.5\ngini = 0.444\nsamples = 3\nvalue = [2, 1]"] ;
1161 -> 1163 ;
1164 [label="gini = 0.0\nsamples = 2\nvalue = [2, 0]"] ;
1163 -> 1164 ;
1165 [label="gini = 0.0\nsamples = 1\nvalue = [0, 1]"] ;
1163 -> 1165 ;
1166 [label="X[12] <= 9.5\ngini = 0.408\nsamples = 35\nvalue = [10, 25]"] ;
1158 -> 1166 ;
1167 [label="X[5] <= 0.5\ngini = 0.231\nsamples = 15\nvalue = [2, 13]"] ;
1166 -> 1167 ;
1168 [label="X[12] <= 7.5\ngini = 0.133\nsamples = 14\nvalue = [1, 13]"] ;
1167 -> 1168 ;
1169 [label="X[10] <= 168.5\ngini = 0.32\nsamples = 5\nvalue = [1, 4]"] ;
1168 -> 1169 ;
1170 [label="gini = 0.0\nsamples = 1\nvalue = [1, 0]"] ;
1169 -> 1170 ;
1171 [label="gini = 0.0\nsamples = 4\nvalue = [0, 4]"] ;
1169 -> 1171 ;
1172 [label="gini = 0.0\nsamples = 9\nvalue = [0, 9]"] ;
1168 -> 1172 ;
1173 [label="gini = 0.0\nsamples = 1\nvalue = [1, 0]"] ;
1167 -> 1173 ;
1174 [label="X[0] <= -6.6\ngini = 0.48\nsamples = 20\nvalue = [8, 12]"] ;
1166 -> 1174 ;
1175 [label="gini = 0.0\nsamples = 2\nvalue = [2, 0]"] ;
1174 -> 1175 ;
1176 [label="X[1] <= 5.3\ngini = 0.444\nsamples = 18\nvalue = [6, 12]"] ;
1174 -> 1176 ;
1177 [label="gini = 0.0\nsamples = 4\nvalue = [0, 4]"] ;
1176 -> 1177 ;
1178 [label="X[0] <= 3.8\ngini = 0.49\nsamples = 14\nvalue = [6, 8]"] ;
1176 -> 1178 ;
1179 [label="X[10] <= 160.0\ngini = 0.397\nsamples = 11\nvalue = [3, 8]"] ;
1178 -> 1179 ;
1180 [label="X[1] <= 8.1\ngini = 0.5\nsamples = 6\nvalue = [3, 3]"] ;
1179 -> 1180 ;
1181 [label="gini = 0.0\nsamples = 2\nvalue = [2, 0]"] ;
1180 -> 1181 ;
1182 [label="X[10] <= 134.0\ngini = 0.375\nsamples = 4\nvalue = [1, 3]"] ;
1180 -> 1182 ;
1183 [label="gini = 0.0\nsamples = 3\nvalue = [0, 3]"] ;
1182 -> 1183 ;
1184 [label="gini = 0.0\nsamples = 1\nvalue = [1, 0]"] ;
1182 -> 1184 ;
1185 [label="gini = 0.0\nsamples = 5\nvalue = [0, 5]"] ;
1179 -> 1185 ;
1186 [label="gini = 0.0\nsamples = 3\nvalue = [3, 0]"] ;
1178 -> 1186 ;
1187 [label="X[0] <= 3.6\ngini = 0.346\nsamples = 9\nvalue = [7, 2]"] ;
1157 -> 1187 ;
1188 [label="gini = 0.0\nsamples = 6\nvalue = [6, 0]"] ;
1187 -> 1188 ;
1189 [label="X[0] <= 7.7\ngini = 0.444\nsamples = 3\nvalue = [1, 2]"] ;
1187 -> 1189 ;
1190 [label="gini = 0.0\nsamples = 2\nvalue = [0, 2]"] ;
1189 -> 1190 ;
1191 [label="gini = 0.0\nsamples = 1\nvalue = [1, 0]"] ;
1189 -> 1191 ;
1192 [label="X[1] <= 14.55\ngini = 0.245\nsamples = 14\nvalue = [2, 12]"] ;
1156 -> 1192 ;
1193 [label="X[0] <= -8.45\ngini = 0.142\nsamples = 13\nvalue = [1, 12]"] ;
1192 -> 1193 ;
1194 [label="X[11] <= 11.5\ngini = 0.5\nsamples = 2\nvalue = [1, 1]"] ;
1193 -> 1194 ;
1195 [label="gini = 0.0\nsamples = 1\nvalue = [0, 1]"] ;
1194 -> 1195 ;
1196 [label="gini = 0.0\nsamples = 1\nvalue = [1, 0]"] ;
1194 -> 1196 ;
1197 [label="gini = 0.0\nsamples = 11\nvalue = [0, 11]"] ;
1193 -> 1197 ;
1198 [label="gini = 0.0\nsamples = 1\nvalue = [1, 0]"] ;
1192 -> 1198 ;
1199 [label="gini = 0.0\nsamples = 2\nvalue = [2, 0]"] ;
1155 -> 1199 ;
1200 [label="gini = 0.0\nsamples = 4\nvalue = [4, 0]"] ;
1154 -> 1200 ;
1201 [label="gini = 0.0\nsamples = 4\nvalue = [0, 4]"] ;
1153 -> 1201 ;
1202 [label="X[0] <= 15.05\ngini = 0.375\nsamples = 12\nvalue = [9, 3]"] ;
1146 -> 1202 ;
1203 [label="X[10] <= 659.0\ngini = 0.18\nsamples = 10\nvalue = [9, 1]"] ;
1202 -> 1203 ;
1204 [label="gini = 0.0\nsamples = 9\nvalue = [9, 0]"] ;
1203 -> 1204 ;
1205 [label="gini = 0.0\nsamples = 1\nvalue = [0, 1]"] ;
1203 -> 1205 ;
1206 [label="gini = 0.0\nsamples = 2\nvalue = [0, 2]"] ;
1202 -> 1206 ;
1207 [label="X[8] <= 3.5\ngini = 0.298\nsamples = 11\nvalue = [2, 9]"] ;
1145 -> 1207 ;
1208 [label="gini = 0.0\nsamples = 9\nvalue = [0, 9]"] ;
1207 -> 1208 ;
1209 [label="gini = 0.0\nsamples = 2\nvalue = [2, 0]"] ;
1207 -> 1209 ;
1210 [label="X[4] <= 3.5\ngini = 0.457\nsamples = 51\nvalue = [33, 18]"] ;
1142 -> 1210 ;
1211 [label="X[12] <= 8.5\ngini = 0.49\nsamples = 42\nvalue = [24, 18]"] ;
1210 -> 1211 ;
1212 [label="X[0] <= -5.75\ngini = 0.483\nsamples = 22\nvalue = [9, 13]"] ;
1211 -> 1212 ;
1213 [label="gini = 0.0\nsamples = 2\nvalue = [2, 0]"] ;
1212 -> 1213 ;
1214 [label="X[11] <= 14.5\ngini = 0.455\nsamples = 20\nvalue = [7, 13]"] ;
1212 -> 1214 ;
1215 [label="gini = 0.0\nsamples = 2\nvalue = [2, 0]"] ;
1214 -> 1215 ;
1216 [label="X[2] <= 11.0\ngini = 0.401\nsamples = 18\nvalue = [5, 13]"] ;
1214 -> 1216 ;
1217 [label="gini = 0.0\nsamples = 1\nvalue = [1, 0]"] ;
1216 -> 1217 ;
1218 [label="X[12] <= 6.5\ngini = 0.36\nsamples = 17\nvalue = [4, 13]"] ;
1216 -> 1218 ;
1219 [label="X[10] <= 558.5\ngini = 0.463\nsamples = 11\nvalue = [4, 7]"] ;
1218 -> 1219 ;
1220 [label="X[4] <= 1.5\ngini = 0.5\nsamples = 8\nvalue = [4, 4]"] ;
1219 -> 1220 ;
1221 [label="gini = 0.0\nsamples = 2\nvalue = [2, 0]"] ;
1220 -> 1221 ;
1222 [label="X[10] <= 460.0\ngini = 0.444\nsamples = 6\nvalue = [2, 4]"] ;
1220 -> 1222 ;
1223 [label="X[0] <= 9.85\ngini = 0.32\nsamples = 5\nvalue = [1, 4]"] ;
1222 -> 1223 ;
1224 [label="gini = 0.0\nsamples = 4\nvalue = [0, 4]"] ;
1223 -> 1224 ;
1225 [label="gini = 0.0\nsamples = 1\nvalue = [1, 0]"] ;
1223 -> 1225 ;
1226 [label="gini = 0.0\nsamples = 1\nvalue = [1, 0]"] ;
1222 -> 1226 ;
1227 [label="gini = 0.0\nsamples = 3\nvalue = [0, 3]"] ;
1219 -> 1227 ;
1228 [label="gini = 0.0\nsamples = 6\nvalue = [0, 6]"] ;
1218 -> 1228 ;
1229 [label="X[6] <= 8.5\ngini = 0.375\nsamples = 20\nvalue = [15, 5]"] ;
1211 -> 1229 ;
1230 [label="X[3] <= 1.0\ngini = 0.375\nsamples = 4\nvalue = [1, 3]"] ;
1229 -> 1230 ;
1231 [label="gini = 0.0\nsamples = 3\nvalue = [0, 3]"] ;
1230 -> 1231 ;
1232 [label="gini = 0.0\nsamples = 1\nvalue = [1, 0]"] ;
1230 -> 1232 ;
1233 [label="X[10] <= 529.5\ngini = 0.219\nsamples = 16\nvalue = [14, 2]"] ;
1229 -> 1233 ;
1234 [label="gini = 0.0\nsamples = 13\nvalue = [13, 0]"] ;
1233 -> 1234 ;
1235 [label="X[11] <= 14.5\ngini = 0.444\nsamples = 3\nvalue = [1, 2]"] ;
1233 -> 1235 ;
1236 [label="gini = 0.0\nsamples = 1\nvalue = [1, 0]"] ;
1235 -> 1236 ;
1237 [label="gini = 0.0\nsamples = 2\nvalue = [0, 2]"] ;
1235 -> 1237 ;
1238 [label="gini = 0.0\nsamples = 9\nvalue = [9, 0]"] ;
1210 -> 1238 ;
1239 [label="X[1] <= 2.4\ngini = 0.485\nsamples = 41\nvalue = [24, 17]"] ;
861 -> 1239 ;
1240 [label="X[6] <= 19.5\ngini = 0.497\nsamples = 26\nvalue = [12, 14]"] ;
1239 -> 1240 ;
1241 [label="X[12] <= 8.5\ngini = 0.455\nsamples = 20\nvalue = [7, 13]"] ;
1240 -> 1241 ;
1242 [label="X[10] <= 550.0\ngini = 0.469\nsamples = 8\nvalue = [5, 3]"] ;
1241 -> 1242 ;
1243 [label="gini = 0.0\nsamples = 4\nvalue = [4, 0]"] ;
1242 -> 1243 ;
1244 [label="X[6] <= 17.0\ngini = 0.375\nsamples = 4\nvalue = [1, 3]"] ;
1242 -> 1244 ;
1245 [label="gini = 0.0\nsamples = 1\nvalue = [1, 0]"] ;
1244 -> 1245 ;
1246 [label="gini = 0.0\nsamples = 3\nvalue = [0, 3]"] ;
1244 -> 1246 ;
1247 [label="X[12] <= 26.5\ngini = 0.278\nsamples = 12\nvalue = [2, 10]"] ;
1241 -> 1247 ;
1248 [label="X[0] <= 19.05\ngini = 0.165\nsamples = 11\nvalue = [1, 10]"] ;
1247 -> 1248 ;
1249 [label="gini = 0.0\nsamples = 9\nvalue = [0, 9]"] ;
1248 -> 1249 ;
1250 [label="X[10] <= 464.5\ngini = 0.5\nsamples = 2\nvalue = [1, 1]"] ;
1248 -> 1250 ;
1251 [label="gini = 0.0\nsamples = 1\nvalue = [1, 0]"] ;
1250 -> 1251 ;
1252 [label="gini = 0.0\nsamples = 1\nvalue = [0, 1]"] ;
1250 -> 1252 ;
1253 [label="gini = 0.0\nsamples = 1\nvalue = [1, 0]"] ;
1247 -> 1253 ;
1254 [label="X[2] <= 18.5\ngini = 0.278\nsamples = 6\nvalue = [5, 1]"] ;
1240 -> 1254 ;
1255 [label="gini = 0.0\nsamples = 5\nvalue = [5, 0]"] ;
1254 -> 1255 ;
1256 [label="gini = 0.0\nsamples = 1\nvalue = [0, 1]"] ;
1254 -> 1256 ;
1257 [label="X[0] <= 19.3\ngini = 0.32\nsamples = 15\nvalue = [12, 3]"] ;
1239 -> 1257 ;
1258 [label="X[5] <= 0.5\ngini = 0.142\nsamples = 13\nvalue = [12, 1]"] ;
1257 -> 1258 ;
1259 [label="gini = 0.0\nsamples = 12\nvalue = [12, 0]"] ;
1258 -> 1259 ;
1260 [label="gini = 0.0\nsamples = 1\nvalue = [0, 1]"] ;
1258 -> 1260 ;
1261 [label="gini = 0.0\nsamples = 2\nvalue = [0, 2]"] ;
1257 -> 1261 ;
1262 [label="X[0] <= -1.45\ngini = 0.457\nsamples = 48\nvalue = [31, 17]"] ;
860 -> 1262 ;
1263 [label="X[6] <= 8.5\ngini = 0.397\nsamples = 11\nvalue = [3, 8]"] ;
1262 -> 1263 ;
1264 [label="X[12] <= 0.5\ngini = 0.32\nsamples = 10\nvalue = [2, 8]"] ;
1263 -> 1264 ;
1265 [label="gini = 0.0\nsamples = 1\nvalue = [1, 0]"] ;
1264 -> 1265 ;
1266 [label="X[0] <= -5.5\ngini = 0.198\nsamples = 9\nvalue = [1, 8]"] ;
1264 -> 1266 ;
1267 [label="X[6] <= 6.5\ngini = 0.444\nsamples = 3\nvalue = [1, 2]"] ;
1266 -> 1267 ;
1268 [label="gini = 0.0\nsamples = 1\nvalue = [1, 0]"] ;
1267 -> 1268 ;
1269 [label="gini = 0.0\nsamples = 2\nvalue = [0, 2]"] ;
1267 -> 1269 ;
1270 [label="gini = 0.0\nsamples = 6\nvalue = [0, 6]"] ;
1266 -> 1270 ;
1271 [label="gini = 0.0\nsamples = 1\nvalue = [1, 0]"] ;
1263 -> 1271 ;
1272 [label="X[0] <= 6.4\ngini = 0.368\nsamples = 37\nvalue = [28, 9]"] ;
1262 -> 1272 ;
1273 [label="X[1] <= 2.0\ngini = 0.428\nsamples = 29\nvalue = [20, 9]"] ;
1272 -> 1273 ;
1274 [label="gini = 0.0\nsamples = 3\nvalue = [0, 3]"] ;
1273 -> 1274 ;
